mlp_weights
I:4
J:6
K:2
V:
-0.25850400811658480471066923200851
-2.62412146614036734248998072871473
-2.55411185701932996749974336125888
-1.21258623503230467122193658724427
-0.04541211187782018265934880218992
1.03298627386232655389619594643591
0.53605940815289054857117889696383
1.15027135709103434102473784150789
-0.75461493253671030334572833453421
0.56626959274817256773104645617423
-2.43747159983838335151062892691698
2.24731223297085858092714261147194
-2.57474942514801474757746291288640
-0.37994605415472659792897047736915
-2.05235811478846885691496026993264
-0.76914596214319042033480400277767
-0.56929105064177476513975761918118
1.00440096344073137579755439219298
-1.70024739522544177106055940384977
0.06852384756114184016784207642559
-1.80140187443480481732649423065595
0.94489502794587010292559625668218
1.11584744072568042838611290790141
-1.19299575728134543695091451809276
-0.48665891044047748792422680708114
-0.39244665684283863704706618591445
-0.62291723694395761956599244513200
0.24255784797000912167419528486789
1.97752857443929253022929515282158
2.01731351713209150489092280622572
W:
0.26273856787654192856962254154496
3.31501054250854165772466330963653
-1.03165728258657485305604950553970
0.00848589093277898193212749333725
-1.55486401489635128747579528862843
-0.48929197595440887536000218460686
-0.80445688040123886075605241785524
-0.05711948363062689659752635407131
-2.61160059803739619255225079541560
3.10680714741778896126334075233899
-0.01151734525204771431017292115939
1.70091842002467852346114796091570
0.97787754913084323771244044110063
-0.76181978687345364154026583491941
