mlp_weights
I:4
J:5
K:1
V:
-1.27531020419195018078539760608692
-0.56880842054529356932590644646552
0.54034778076263001445056488591945
1.02232407995637353259610335953766
-0.53706523591397603567543228564318
-1.04759797468061366387814814515878
-1.79828691482949110103106704627862
-0.09525943714163978559561485326412
0.72094958202374104239140706340550
1.46146839630858105252286804898176
1.72331746958621612186846050462918
0.77331299693346755574907547270413
-0.57377669726479829659382403406198
-1.09705638134178506959415244637057
0.16298169167367806964286103266204
-0.96793563862971176980920517962659
-1.93803012543065289463584122131579
-2.15846083320031656427318011992611
-0.33205006995114016987713512207847
-0.68139273518234988458175394043792
-1.10508716438444842822264035930857
-0.66950901967858844621162006660597
-0.16668692725760991812933298206190
-0.96486273612496997742482562898658
-0.09690623774036880022642037602054
W:
-0.54421189352147469886489261625684
-0.95406664401494600813435909003601
0.82954846973016027611436129518552
0.99796135900608307078840653048246
-1.86633694844825903658147581154481
0.06499689045939080478397897877585
