mlp_weights
I:4
J:5
K:1
V:
0.44896483762672423356576700825826
0.20923883621109168329255112439569
1.39679337562620142776381726434920
-0.41512673436213975985964452775079
2.62081068554404961190584799624048
-0.75733578893035502499486710803467
0.98278895159396317815492238878505
-1.83910420948741593072384148399578
0.91693852762675842615891497189295
-2.72241453025292567957649225718342
0.79592707452854793981344982967130
-2.52755930125819983089741072035395
0.70498633686010736543181565139093
0.25268570749562035970825490949210
-1.16675503629063581634284219035180
-0.72324834741426657913621056650300
-1.13129606404946869702143885660917
0.28032805881695072036663418657554
-0.53078598061159432131006497002090
-2.35459496416866542745083279442042
-0.75611744346998377430679738608887
-0.31157185577929047415324248504476
0.53261269976520619895410391109181
-1.92548918870380947332421328610508
-1.17857214196171744546859372348990
W:
-0.84177257161263485674140838455060
-0.92869484995966700147107530938229
-0.56994886843652559083039932374959
-0.33064698775258144491928646857559
-0.76850857924488136241336633247556
-0.07068748401635002731602241965447
