mlp_weights
I:4
J:5
K:1
V:
-2.30642210707767825184077992162202
-0.67541732603487136810116453489172
-0.42799418534663785651517287078605
-1.10692189438580612659279722720385
0.77863701177758315452592796646059
-1.43394623282404154451796784996986
-1.62245055319123321346808097587200
0.01863671061219512176121426705322
-0.36216190033736705977673864254029
-0.25121849224906311892624444226385
0.94592784027880327801796056519379
0.31626026368996340565331593097653
-1.16935014899767963925114599987864
1.69207851969422562454781200358411
0.30430681737510906215149475428916
-1.33213507949586551504239650967065
-0.16828400499510989818396922146349
1.29311090633211689393533561087679
0.37276100183901555995547028032888
-0.20496316554830179557100677811832
0.45492512110489835563953420205507
-1.54427242495875782779535256850068
-1.53109147302974446525070106872590
0.78281100158161232016595931781922
-0.23986444627270253615591855123057
W:
-0.70423580329069901395655506348703
-0.31099685117612996254621293701348
1.16783223641258948610754941910272
-0.87538391983276053753826317915809
-0.42407785372753792341171674706857
-0.14584744812992420093245016232686
