mlp_weights
I:4
J:5
K:1
V:
-0.73084945250740096511776755505707
0.60820066761397617582929342461284
0.67161534522198851338004033095785
-2.63544011020656565591480102739297
-0.62541923151187639451364930209820
-0.09016581241469721896830691321156
1.22484179814131066699189887003740
-0.67291807820332383283101762572187
-0.07041478961307753858811508962390
-0.46120358939540734288797807494120
0.36027050105626179377082962673740
-0.21948663379809627005379013553465
-1.95816291016027865801163443393307
0.87537935179954984299399711744627
1.43013308044045750477835099445656
-0.60413741472204351978803060774226
-0.29504206483447920073004411278816
-2.19741661095228613120866612007376
0.14710755684679296950712057423516
0.44318438533132115120238836425415
-2.64721770294841096671234481618740
0.02100994726128371792306381848903
-0.91839019297265200858504385905690
-0.64628801815305680911194485815940
-0.09905888271458390681445393965987
W:
-0.02463470037075835006312729547062
0.69258596414255046980201768747065
0.43225416873150779295542633917648
-0.78205567800034336833903125807410
-1.25816404088062627764088574622292
-0.18542368055263941384325221406471
