mlp_weights
I:4
J:5
K:1
V:
-1.86778198789136085089523930946598
0.45422327866352901759583460261638
-1.90278917824750837262115510384319
2.57669450147674883311310622957535
-1.73603996987465492018998247658601
-0.42338551355202147519207755976822
-0.60727649551981832676261774395243
-0.31532008605054562266900575195905
-0.01314777149391123389765567708309
-1.93564014056127065011025933927158
1.68257864863172845737437910429435
-0.71448723603449315611157999228453
-0.48775407262103731564906183848507
1.83088273934902412420910877699498
0.37506032874348704808653565123677
0.06127973864029756523308378746151
0.54925009235408561725222398308688
2.00699552962553706692006016965024
-1.66135318771933016002151362044970
-0.97105723736834304027354392019333
-1.67216886248422902383481414290145
-0.33032395813433956810456493258243
-1.06882999454593430321835967333755
-1.21585715590944287711749893787783
0.44700758689308178750465572193207
W:
-0.64823814608115326585391358094057
-0.52710070524877239428462871728698
0.72496762938116543484312614964438
-0.69415934738837248296761117671849
-1.38988177497503451185423273273045
-0.90630725691509184116512187756598
