mlp_weights
I:4
J:5
K:1
V:
-2.01202384182026561276757092855405
0.40081713474426372556536080082878
-0.85467111050686361828354620229220
1.58267470413387423278095411660615
1.19179082293919025303807757154573
-0.96853904631905740618691424970166
0.74828303892971959054847275183420
1.72198535052214829477179591776803
-0.50221895938968752481912360963179
1.40743657798178101181463262037141
-0.34259876547273931945980507407512
-2.37067861711046523609525138454046
-1.59386558839937864107128007162828
0.47589110952950447464004923858738
-0.95020379148563116622483448736602
1.71089979169215022913874690857483
-1.05081871387987169086386529670563
-2.23927521052930966760641240398400
-0.41788926084711547348504723231599
-1.68812681777704032271003597998060
-0.25599215914631462398531880353403
-0.10724041008000936847643913552020
0.21860100801815984805642756327870
0.74253666281443775343262814203626
-0.09996635534993417171456542291708
W:
-1.70162473439745509651288557506632
-0.56504399004400340800202684476972
-1.71411980301291855255385598866269
-0.03785671579317051449464770485065
-0.51627812992096755451143508253153
-2.48692659931808535134223347995430
