mlp_weights
I:4
J:5
K:1
V:
0.42352772726201748376695377373835
0.32314966132826372646746904138126
-0.66685849954642217873868048627628
1.67843103299439300180040390841896
-0.41259223023294355758849860649207
-0.23531177955776561017131598418928
-0.29634951369529494158427951333579
1.59999093605825648545248895970872
2.11046220857464428277694423741195
-1.22423443601985204587379030272132
-0.93832951917606366443180831993232
-1.25788515118072696807871579949278
-0.02957239313311685324769939597900
-1.02093086140308719755864785838639
-1.21396476625659310855098738102242
-2.21924866789592600824221335642505
-1.21565898232827351854723474389175
-0.48887624638559318279718013400270
-2.27448370074909211879798931477126
1.41904388861728469883871639467543
1.51970995968275901510935455007711
-0.21418628004261536235119933735405
-0.87347701656672582792850789701333
0.58293782897335266746097204304533
0.03838652380698413801862756145056
W:
-0.94479061207644865483246121584671
-2.02765979928156392375626637658570
-1.03048674400910456050439734099200
-0.13717731658327139698805297030049
1.54974831754189223964601751504233
-2.48138532386325127987447558552958
