mlp_weights
I:4
J:5
K:1
V:
-0.78294703071837490337969711617916
1.95838108499287666397492557734950
1.72810689265495631694591338600731
1.07282458903082966727993152744602
-0.46244435045378645687819130216667
-1.34580742380341611408312019193545
-0.50191785386282661285406447859714
-1.06064244933525930747464371961541
0.19648095717915839419909218577232
1.08512970914831607949224689946277
0.99952725455746793681299777745153
-1.34995082234180330260642222128808
0.75019631459927826888645086000906
-1.15369526640448083476542251446517
0.82526882216280716964007524438784
-1.79964482593179830871576996287331
0.98993580682506177037538463991950
0.72232016412086352818988643775810
2.03380754821742160132203025568742
-0.18803364489470053566577689707628
-1.15525690257929491977506586408708
-3.05798645905528010402463223726954
-0.20180732527751216176525872469938
-1.01304142333444691104205048759468
-1.53482019277820924685329373460263
W:
-0.38247412293483107337266346803517
-1.47303644172340963969247695786180
-0.74677286844212309446788822242524
-1.35914516953158281964419984433334
-0.30720708804265517422038556105690
-0.57019090536648042721878937300062
