mlp_weights
I:4
J:5
K:1
V:
0.34716862104061269045374160668871
-1.83201077287798241854943626094609
-1.04786879211161121361328696366400
0.17856133730286968819278570208553
0.85885756545252156524128395176376
-1.18536349923410266882228825124912
-1.52608513912466325912475895165699
-1.37355292933223993578906174661824
-0.50840473091347604395195958204567
-1.46578606564977409476568936952390
-2.06206080120183665727040533965919
0.41223471355322649500863008142915
-0.09145552670781242898812024577637
0.46188617649788293872958888641733
1.07158739916881118325875377195189
-0.82711416778805835203769447616651
-1.40342745907260546545103352400474
0.81619146801746578212544136476936
1.97614514148313036301374268077780
0.70391458216578217665926331392257
-0.37495902287238397354585117682291
-1.39305848327904846506442027020967
-1.05753360833466869550534283916932
-0.01118365987455401805439336726522
2.20203733189185291152512036205735
W:
-0.30448700064770983786388569569681
-0.83656639210009442475524110705010
-3.56493224889595916593520996684674
1.02888805492057278101469819375779
-0.44878284417718389276430457357492
-0.84069950176468077884806007205043
