mlp_weights
I:4
J:5
K:1
V:
-1.13825226372905441429850270651514
-1.91918529720562247575799119658768
-0.43604665670341591354741694885888
-0.03586672524203454726077211489610
1.13132100131068868975603436410893
0.22050936239509383307577650157327
-1.35086333805993419332480698358268
-1.09097244692210892935690935701132
-0.92146235687905619915483157456038
-0.80921038768217834480367400828982
-0.83814887333638643518440858315444
-0.87201802698345276532165826210985
3.62508311132749216909587630652823
0.24403763077941667547499093871011
1.88198729535554365455141123675276
-1.76776579883203188714446696394589
-0.67334666311282231898616146281711
1.55628593207584553503863844525767
0.35131847995672804696454250006354
-0.00480576807472243849872484133812
-0.47831642354039871634086011908948
0.96252062535502302953460684875608
-0.33304368241212373158433024400438
-2.47613301256528561822278788895346
0.77997796740241742696753135533072
W:
0.69170151076391173106117093993817
-0.10723488813175914569075786175745
-2.30131074269826907396918613812886
-0.27133235282540035804288436338538
-1.32583051760712522515461841976503
-0.22687839397885828374157313191972
