mlp_weights
I:4
J:5
K:1
V:
-0.07856499734276040092240123158263
0.16193238811027396706343495225155
-1.79477503750344058452981244045077
0.72199509260242489272485499895993
-0.28177207973485013381420571931812
-0.52220168654212750780629903601948
0.27612680702531877674488214324811
0.15840849829051112385158717188460
0.81561769357607094566020577985910
-0.53295084523247471253171170246787
-1.47614203189327364285077237582300
-0.83506319913665782994627306834445
-0.25139669675095077661097775489907
-0.58979948863755282673082547262311
0.13517096383062354725268505717395
-1.51666467465837939698758418671787
0.74771048850183507994415776920505
1.51321905938023060222974436328514
-1.70552496443151868632526202418376
-0.98769436614256356232743883083458
-1.47771660496529877448779188853223
-0.10619434213057918348077635073423
-0.19016528074389399405319522884383
-1.79123094025900719827859575161710
-0.09617441973576558444936068781317
W:
0.33547618771063064668780384636193
-1.62254489776393961975031743349973
-0.08517428839799370821062041159166
-0.42784440829367087477663744721212
-0.58753855480036254466114087335882
-1.05250583375032191746356602379819
