mlp_weights
I:4
J:5
K:1
V:
-1.13793834896739420869948844483588
-0.40996600050148346294776047216146
-1.35464418678415099428491430444410
-0.11369375719199370511347524370649
1.47105314908519368977124486264074
-1.73027353155556107289214651245857
1.66120446895320394986583778518252
-2.42885596419331317719070284510963
0.12872635655487396633134267176501
-2.63833079382179569449817790882662
-1.07910813394891769156913596816594
0.21343913039512096840866206548526
-0.41385464238936936487434081755055
-0.20586289075338884413390871941374
1.27814940055283443598455050960183
-1.89765149925808773723190370219527
-1.81766923827896342835686027683550
-0.80177321581781479942208079592092
-0.67386419884826576076619630839559
-2.45782736850490612923181288351770
-1.72241380934438614858095206727739
0.15057853546408705991410670321784
-2.15402269852205963118763065722305
-0.64539282099818973126303944809479
-0.40340528155253674302826993880444
W:
-4.06760738176248093367348701576702
-2.31978493220933090768198781006504
0.04654211442448322189058274034323
-1.67400918947586752061340575892245
-2.30886514660861585923612437909469
-1.00687298400376867846262030070648
