mlp_weights
I:4
J:5
K:1
V:
-2.22919811089120711855571244086605
-0.90181705901891162646677457814803
-0.30380662205211006465788159403019
0.81475918183713313958094204281224
-0.12149887716424322137154234724221
-1.46913323735130885161481728573563
-0.51239446939095323330093378899619
-1.06195324592586470835442469251575
0.05604808581874752559937036267002
-1.63120458376961430246865347726271
1.10771756655400155366919534571934
0.29994698306405798149398833629675
0.53418173261940427032357092684833
-0.86954053210319259825666904362151
0.03652126364687032639144703694001
-0.67787598580129937442251275570015
0.78334504457006992605982986788149
-0.18175841462006558924002774801920
0.04124798430872553267612090621697
-2.01544826781555475037066571530886
-0.84498793618012479900158950840705
1.73593226896683816562472202349454
-0.06584160312006967497033826930419
0.64531135673850870126955214800546
-1.32402702871024846587033607647754
W:
-1.02613942990254880527345449081622
-0.16910027068765623448065582579147
0.04290657201597934677916867940439
-0.20432288893392652751046512094035
-0.85543801733325341984937040251680
-0.70595525619957111285174278236809
