mlp_weights
I:4
J:5
K:1
V:
0.76715778514804922050274171851925
-1.16648999994830626647512872295920
2.20230793449313644316589488880709
-0.88487491438179100011751643251046
-2.01379499654938998176589848299045
-1.42605200108755658661152665445115
-1.61083228333196970538665482308716
-0.82121634681751753959133566240780
0.08724177491649741378321181173305
-0.31329474310563643069116324113565
-1.16009714660298257626891427207738
-0.21196744619494650718749539919372
-0.62283199462054794626197917750687
0.13909728325101480828074329565425
-0.95415178389476940079561018137611
0.72495829555181845460509748590994
0.06466994531664480017063567629521
-0.18510469978993143724821379692003
-0.24302045194503443803490938535106
-0.12704903623010641022794686705311
0.47499081650262281462104851925687
-0.23847440272695552554438336301246
1.76660293552756297863481904641958
-2.60780524171106664610420011740644
-0.42865831955100408556802449311363
W:
-0.58408796277145247355377932763076
-0.58152858334174939436422846483765
-1.97387471034997430407997853762936
-0.22347236441526746597574515362794
0.87847777075181987527230376144871
-1.18421758859421522025456852134084
