mlp_weights
I:4
J:5
K:1
V:
-0.66946588121295480533490263042040
-1.19984829696777195451318220875692
-0.17822319660275323660592050600826
1.62540701083729199893923578201793
-0.16005457523973790068261280339357
-3.39717597467510801223511407442857
-0.67447666206142420364244571828749
-0.74190082574380256108526054958929
1.01880147782398267075620879040798
-2.27251307584626704993979728897102
-0.42721245939303875704950996805565
-1.42587681499747165325686637515901
-0.13498025018471590530388937168027
-0.74294646092014282601212471490726
-1.16880803622021933740882104757475
2.25976603028768252556801598984748
0.82027640201717721968321939129964
0.33862350854136497035895558838092
-0.20849181684062723096673153122538
0.76971948365219122756286651565460
0.29042829684400894851847851896309
-1.13184820269045727236800757964374
-0.90175046859767982176947498373920
-0.61348241514159840281905644587823
2.62524356358778954145805073494557
W:
-0.52676917925716593149587652078480
-0.20518241095877609581066280952655
-2.97955920657579209631649064249359
0.18863449781289962081665123605489
1.42762338450284720359206858120160
-1.18881922424704922214289126713993
