mlp_weights
I:4
J:5
K:1
V:
-1.37539789025763092844556467753137
-0.62293381254828317228344758405001
1.63082294885363809910927557211835
2.12842622669137337965139522566460
-1.26723761795811640240572160109878
-1.08200587713962725899818906327710
-0.60026090165376111418282789600198
1.41290498033120792698014156485442
-1.12431127926882745704517674312228
-0.25479257918037051533488579480036
-1.30427299487489389839822706562700
0.08328661293972391965745316610992
-0.62083338756249661916086779456236
0.47680745175973410221459403146582
-1.28548079667779857615528271708172
1.08548162891182542466594895813614
2.63278888452945514231373635993805
-1.01581012997433783873191259772284
1.60774834776843711381388857262209
1.49569134462573272159602311148774
0.42018780635729180428228346499964
1.61302077581278480167270572565030
-2.05041965910425760810653628141154
-3.00568702688027977742990515253041
-0.65099900471291194392620127473492
W:
-0.59272319648029681005141355853993
-2.35285429379573640673584122851025
-0.17518712341299352841517134038440
-1.06653552607338242275147877080599
-0.14626639435832333724363252258627
-0.77730194039210998013800235639792
