mlp_weights
I:4
J:5
K:1
V:
-1.27612548962802208052380592562258
-0.32106138275136525406239229596395
0.55794232549337108295617326803040
-0.91305245561568193490842304527177
0.48888399681020805465081480178924
1.99583582951133964300538536917884
-1.08288685083432101308176243037451
-0.04746490108612159974921240745971
-1.00914989761828488568085049337242
-0.10380454755030095459478189923175
-0.72417556854727826998185946649755
-1.24158230707553562943701308540767
0.73474364316685736309153753609280
-0.83649016948186605269199844769901
-0.37322714450425326093707667496346
-0.99084289256872848383750351786148
2.40345169330341246194393534096889
-1.58756689133826633941737327404553
0.45649266951609490661212475970387
-0.20129486699785500980475205778930
2.13436678704927063066065784369130
2.05657800680597624420897773234174
0.49124341676315264049179631911102
-2.40128350548492752736251532041933
-0.70586572566374616855000567738898
W:
-3.37153523464532645093072460440453
2.81798235804891028521979023935273
-3.03399343466328019758293521590531
-0.28009952262307652448569683656387
-0.27666966674304210860313446573855
-0.93544129463093739218493283260614
