mlp_weights
I:4
J:5
K:1
V:
-1.79103243034284287382718048320385
0.23447524490910978678392950769194
-2.40144823215263381044337620551232
-1.84175053697579227396374790259870
1.27625482004433199456627789913910
1.15566032235383620019320005667396
0.26489266479751655269936350123317
-1.99148719134906304617516070720740
-0.26444671224602250836355210594775
-0.94529153491052386737436563635129
0.86925760702870347174098242248874
-0.22992803185536889176709962612222
0.64719017051347438318487093056319
0.32579087743772899843364143634972
0.22752337758139873358231852762401
-1.19935226071250156110181706026196
-0.78923320984538347655501411281875
-0.67846368301698756209106022652122
-0.80746734590215463178708432678832
-0.46102058791581612684495894427528
-0.55355172554765397219256328753545
-0.20213375908925151902550965132832
0.71410436581885161633209690990043
-0.24575436427941890760173748731177
-0.43356363619848470314366295497166
W:
-1.48272074445809010079244671942433
2.25013007895279848469272110378370
1.69585291624936163046299952839036
-1.19094948141325551738134436163818
-1.31977032740630839668938278919086
-1.33727745634196093504897362436168
