mlp_weights
I:4
J:5
K:1
V:
-1.77915909350999590365915992151713
-0.88667763490662687697607680092915
-0.73876686869072805130542747065192
3.51571611072280676424384182610083
-0.98946256126990994594905259873485
1.43725721297616471083813394216122
-0.58854914095710753052514974115184
-0.27158234961202332158336503198370
1.85905305034651613382834511867259
0.75762169498961906555223322357051
0.06325983654578144765867619980781
-0.33443274140175827113807827117853
-2.95978968384194640606210668920539
-0.96093769227392966669754059694242
-0.52959141855104152618594071100233
-0.07552870815606685384047125353391
-0.77307939499108346836919736233540
-0.26000769602163364968561154455529
-0.66224690447950962379763950593770
1.98258305369546516949696979281725
-1.93429858021022504921404561173404
-0.55312420433149311893572530607344
-0.46267808127772636073160583691788
0.21417847821853627787724860809249
-0.22080144198926829335327681747003
W:
-1.03227571855461031091749646293465
1.86072481590451022093191113526700
-0.56682085722515829218082217266783
-0.64768891986627707968438016905566
-3.83412456723580064021916768979281
-0.20607651373216284707012846411089
