mlp_weights
I:4
J:5
K:1
V:
-0.33233308996199500962021033956262
-0.20826626008680620971702524002467
-1.55755729704726775253220694139600
0.36734383077925270022490167320939
2.69619850778171654681614199944306
-2.30600176989030103413824690505862
0.83847194090515375641814443952171
1.20394801510651427989273543062154
-0.19435135780656326298654335005267
0.30634780023129193349262777701369
-1.70687919900126283678787331155036
-0.48411906515516850424418748843891
-2.06477715971831621288856695173308
0.76875685798413651017568781753653
-0.05862843870527355283339687730404
1.43809249281025786082466311199823
-1.78039759248243911748943446582416
-0.84530981496389823171000443835510
1.52439789119824875562869692657841
1.01318853275369558097906974580837
-0.08311611984662481411589851632016
1.45642168762975887652544315642444
-1.82903481212930207888689437822904
-1.27031755511357458132692954677623
1.37676423848731377397314190602629
W:
-0.16474166151031516269753751657845
-1.34688562802686040420496738079237
-1.31645066637549668087103782454506
-0.74521604591014956042727135354653
-0.67318868414334742666937927424442
-0.14896771095947908269963022576121
