mlp_weights
I:4
J:5
K:1
V:
0.19062519092345614479810933517001
-0.42684882837122084531245036487235
-1.30007640675596092272314763249597
0.88795543701444901163455369896838
-0.86128865913750907168378034839407
-1.50227786505413618556303845252842
-0.99734031326033911746264948305907
-0.00903506451736647842043481659857
-0.12163309870897909270581749296980
-0.46201721694737324375168441292772
0.24253646600688238965659593304736
-1.19185032672207236181805001251632
0.87453834227675275592162051907508
-1.25926632443629560320630389469443
-0.54774823165351749221230193143128
-1.94792811431809287370242600445636
-0.16826450354955979626936368731549
1.22200148119404339297489059390500
0.14009182018857507801001816005737
-0.00528139971503094243082676584322
-1.92078267388447043728660901251715
-0.38789309581271863569540414573567
-0.30186275841004384101751156777027
-1.71680040180946735794975666067330
-0.29940908592268938859248805783864
W:
-1.01586240441634001463455660996260
0.32128454677150064533464046689915
1.24620833627425775524955042783404
-2.48370124957516491548403791966848
-1.26642536755228318767763084906619
1.64599276176878395183678094326751
