mlp_weights
I:4
J:5
K:1
V:
-1.39610661359406806880656404246110
-1.60176330719339343744422876625322
0.81324269463658327428134953152039
0.66881464167225235240010761117446
-1.57815125324811900142663034785073
-2.15000622346192926670482847839594
-0.63390589008308040330774701942573
-0.74330625495282620640580262261210
0.26326274104040831014472701099294
-0.38216951894862971617072844310314
0.90069678390295793146691494257539
0.36407734818623432859752142576326
0.58599172788256626009939509458491
-0.95769821999948279156456010241527
-0.67995029293200082154413621537969
-1.41574657199554132525065597292269
-1.78679440718363791162914822052699
0.17648271439337237520561529890983
-0.39476961207305616419205307465745
-1.01908594428383048047237480204785
-1.05129579238698811494145957112778
-0.05258561456704902159486891832785
1.64669290375161581074792138679186
-0.85334633733229203755854541668668
0.59310194247382685972524996032007
W:
-0.57664614109718015377836763946107
-1.04838997000500544487522347480990
-0.22147895845830217753658075707790
0.70192129225036248296731855589314
-1.11190810355304825485234232473886
-0.07578304191905660402994726609904
