mlp_weights
I:4
J:5
K:1
V:
-1.85983649505400250312447951728245
-1.43404739250564894348372035892680
-0.52781762243073160334461135789752
-0.14977344776823520167141623460338
2.32807192164275278400964452885091
-1.09369968577426890377068957604934
-0.30283549507638990450075766602822
1.37061621831896407464057574543403
1.52025088623608017890376231662231
-0.07813249395055353596628577861338
-0.46286057062332996991926847840659
2.74589638883145203962499181216117
-0.89559928956517309561746742474497
-2.02359679756135868444744119187817
0.75909321782590055693873409836669
0.21666324847300369449420998080313
-0.72656033834213096245235874448554
-1.05782184054588368482541227422189
-1.03708012682932393389023673080374
-0.57491164908530101307349013950443
-0.11441789980140500138094949988954
-0.26350281543727671618171370937489
-1.21245269709390601775567120057531
-0.42880447660603215886965244862949
-1.77940992029817635078359217004618
W:
-2.04736974214633571378385568095837
-1.01894639199233205673067459429149
1.84710099385464165955283988296287
-0.48884641352143604065005888514861
0.41927368932003794554930209415033
0.52769053997682113799072567417170
