mlp_weights
I:4
J:5
K:1
V:
0.80371075699491534294338634936139
-0.39660793245189446265541732827842
-0.70072131203509924191052959940862
-0.58991120957753762077402370778145
-1.05587251214755117878496548655676
0.51996376366146201952744831942255
-1.33345003513122972726989701186540
-0.62524654021427183980819108910509
-0.97741575738413510876512191316579
-2.84262976641341014172326140396763
-1.73588786726008725835868062858935
-2.80928998033598897876572664245032
-1.78037692033441996564135934022488
0.11576515495032811686737517220536
-1.84103765472645108935978441877523
-1.74004685397539082813977984187659
-0.32033857788596981075457392762473
0.74970356369504487226151923096040
-0.22864652357208531396892681186728
0.69823742311332115395572373017785
-0.56352753512351183573514390445780
1.23007746264372563871347665553913
0.62634187060607471320139438830665
1.33704621907324328056176909740316
-1.25716098518723895516302491159877
W:
-0.13342067277951069614871926205524
0.55242134014489063797981316383812
-0.06814418066818231367598457381973
-2.07712849369626484374862229742575
-1.07081512097450914922092124470510
-0.52159405848550377537975464292686
