mlp_weights
I:4
J:5
K:1
V:
-1.93343406093734149209240058553405
-1.47600465215833853704907596693374
-1.29878942391006213519233369879657
-0.32247492536984856403847743422375
-1.02973225738726070765949316410115
-0.68716050262033934181715721933870
-1.79466690392639183215806042426266
-0.81072668256540969533574525485164
0.40854920559951496406014825879538
1.70893248920363860499094244005391
-0.49754925503747821080580138186633
-0.70436037582308275162290556181688
1.57239162284025213445204371964792
-0.57224370767655452496569523646031
-0.43802731825113944141847355240316
1.74844292490052843902503809658810
0.06780632469374187065724868261896
0.04053644433284551984453258910435
0.87047558417529091734365920274286
-1.78856821970783896880163865716895
-0.61417464817292122258862718808814
0.41236564896320632156445640248421
-1.17568917161506014679162035463378
1.47211262417499244570251448749332
-1.35286793944382699450557083764579
W:
-0.16289908371393305164254172723304
-0.69307714450542312611958095658338
-1.09321657527761639805419235926820
1.09024335207926381663412485067965
-0.78732234316250826466898615763057
0.28138812383666617078503691118385
