mlp_weights
I:4
J:5
K:1
V:
-1.97487486921155719343801138165873
0.47185047275762842522439655112976
-0.45689870664261200694511444453383
-0.64145007813461962786760750532267
-0.23908079344822391609781675470003
-1.09722029628412931501202365325298
0.58736297167750994852042367710965
-2.09425743402852582164541672682390
-0.91634647717360007135312116588466
-2.21777057649275421979950806417037
-0.19997358734468428931307926177396
-0.04143280026825019168867925145605
1.49651035625883133128866120387102
0.23468267109811524750995204158244
0.00291800047114706972983810828737
-0.82143644861930353862078391102841
-0.75169743887201589949142999103060
-0.37086665380834216154681826083106
1.78159110965891454014808914507739
-0.18644898801152595679830881181260
-1.12689483734865736330732488568174
-0.38646108847375099104581863684871
-0.43770269053272603532178663954255
-1.00590890638168284354492243437562
-0.62508060855672853417530632214039
W:
-0.56663299720275417392656436277321
-0.95414136924228010183668402532930
-1.46021449697964866842880837793928
0.31487120851566086088269003084861
-1.40205348434701115856171327322954
-0.75942629906101077885693939606426
