mlp_weights
I:4
J:5
K:1
V:
-2.84987973662595495127902722742874
-0.94656127848360915866265941076563
-1.05173158106674757839016365323914
-1.24727021505857904593028706585756
-0.25889880541478188513693226013856
1.49805659271607138904869316320401
0.25503239315449449664541248239402
-0.55114520705661795840768490961636
0.37397643611811248742782254339545
-0.57874786281522661024467879542499
0.54318263801113864097658279206371
1.56563193855537252652254665008513
0.88969450352543688609330274630338
0.21984327830175609541640824318165
-0.60044671530676285708949535546708
-0.03884953512832933775200672243955
-0.13029881690444078401469596428797
-0.57325863659175912978582800860750
1.09303425299765177847177710646065
-0.51285196847382041873686375765828
-0.83042161884198517629585012400639
0.04666351077215146608834217545336
0.42492337284544301478916850101086
-0.91702045604101567466415190210682
0.04795101122860628145572192693180
W:
-2.10623003818880727422424570249859
-0.12013894840130819041679188785565
-0.82121430554636443144289614792797
-0.10244323834205762424609531535680
-0.52186805025285776249432956319652
-0.76747028287110274913374041716452
