mlp_weights
I:4
J:5
K:1
V:
-0.91991804947513011736504040527507
-0.82318498592445588091237596017891
-0.44601605714802539104368861444527
-0.56001858001947368848050246015191
1.00215991555677530477908021566691
-0.09457101529234868131368330068653
1.61164718408939644511690403305693
-1.14842253971158991809886629198445
-0.91937175441875651493717214179924
0.11746742679414540200255601121171
-0.06692457478922846092483922575411
0.29857633703684582915371947819949
-2.26419983615011899402702510997187
-1.22300505693089411884955097775673
1.12565157065904464239736171293771
1.26864618854942090564463796908967
-0.51670882833044662341137609473662
1.34039489281510260099139486555941
-0.55010993586379053343904388384544
-1.71559883098583343397081080183852
-0.97001456581482869978572125546634
-1.71541826876622205411138111230684
0.26843062491291580506924674409674
0.08342592926364485184098640502270
0.18182754481210733343843344300694
W:
-0.19348930022694488251033817505231
-0.65742648874623732524469232885167
-0.76903444629277606381378973310348
-1.10148440234074662669172539608553
-2.56472284540877648595369464601390
0.35814087527330418225801622611471
