mlp_weights
I:4
J:5
K:1
V:
0.22398658625974485203435904168145
-0.91424014854547774877602250853670
-3.10750233391724028919611555465963
-0.06809855220002083986408081273112
-1.78051337717954405448494981101248
2.10911268845021693252306249632966
-0.77425912545646569107304912904510
-1.09334256398011842037476526456885
-0.96628368484780102765085985083715
1.94790001328683159975696526089450
-1.60281699456764026301414105546428
2.16568439407953894360048252565321
0.86591261563476173979125860569184
0.41539891712534637857601182986400
-0.44534490735053178234181814332260
-0.53554125557964227244411858919193
0.28211452005671522336172074574279
-0.68460066192226265435749610333005
-0.84279498469715530273305148512009
-0.00323122706286468799191657907954
-0.93972289064879421793818892183481
-0.54342745182376328560991396443569
-0.68985329298910369466568681673380
1.05924923246937363607855786540313
-1.81708544850430708805788526660763
W:
0.07547229827416021552544123096595
-0.40503310893842570106215816849726
-0.28637599663538138017315759498160
-2.94768811362002258746883853746112
-0.93080832287802095503792543240706
-0.66499337859054741262099241794203
