mlp_weights
I:4
J:5
K:1
V:
-2.18762270627169375103449056041427
0.35167312684314094850535070690967
-0.83271599359444936627738798051723
-0.74518305746624480256912192999152
2.00072145590691174987796330242418
0.89231949259464682366882470887504
0.60095020967100198916455155995209
-1.06573390610500418063111283117905
0.20876860779039119186961670493474
0.38478529611992368097972416762786
-1.28604322314620866940515497844899
-0.17173897405943150396012697456172
-0.88733945469618169532566298585152
-1.09371470394647940516108519659610
1.72750502649777826214005926885875
-0.77291553379204480656028408702696
0.35476807897858642082411506635253
-0.58456434125953748992543523854692
0.72604662558489185819610156613635
-0.18732616349749398043655901346938
-0.59217615315484795068812218232779
-2.68947132559714807698014737979975
-0.85276568064522095813373425698956
0.16762190498058623933097521785385
-0.39296609993774928026866177788179
W:
-2.46062824323902429313193351845257
1.37982600485581796689871225680690
-1.20327775709028039763381912052864
-2.06567306934857386480075547297020
-0.08652658556124216693294926017188
-0.18391642424390769461339800727728
