mlp_weights
I:4
J:5
K:1
V:
-0.23254348191993454153525533456559
1.08818156079880790088054709485732
-1.30897504250745688736401461937930
1.89605888436529546048348038311815
-0.32600586401491454813239556642657
0.02975945901702359286389310000231
-0.91342726088786918570150419327547
-0.72598778919598605519070133595960
-0.39279482472318705266189908797969
-0.77496548837893397543297169249854
2.02824090716882210472249425947666
-2.67124495845304554819676923216321
-0.41573237675488045050897767396236
-0.01701933594758353596176903010928
-1.96703828981067552206241089152172
-1.19840089100873292693449911894277
-1.08285760395847652226564150623744
-0.40508268998189173037971499979903
3.20472344022899768845036305719987
-1.13859609863084898506713216193020
1.37634462169864679736974721890874
-1.27697122803798945867015390831511
0.05407404975417148818017665234947
-0.55112682050031824854130491075921
-3.28100323563225337863968888996169
W:
-1.68855115760318019724195437447634
0.52968813188282448667365542860352
-0.34618979212670675238427975273225
-0.90259276027994972402268558653304
1.26222465215704215957259748392971
2.01752831098985740965190416318364
