mlp_weights
I:4
J:5
K:1
V:
0.49150943818276654484478171980300
-0.88632729844829638565784080128651
-0.34973148868129444455377097256132
-1.34188544358193051486694002960576
-0.92801055960516709575358618167229
-0.95550563582473968526898033815087
-1.01086979088012540728414023760706
-0.21160948300233173302586919817259
2.48891128080904877606371883302927
0.65974250224124886265997247392079
0.93580395607822808301534678321332
2.65328463420338067635384504683316
-1.11368548543748335788450276595540
-0.77664843956993323548232410757919
-0.00145705221883690727580074053549
0.31122604246601304200936510824249
0.38498560601221060162302478602214
0.39337143878860497681060337527015
-1.27344394364653834550438205042155
-0.84183990727097723905103521246929
-1.39550165831048533782166032324312
1.26211911202901627682138041564031
-0.74743300325617800794475442671683
-0.85621171492698722182979054196039
-0.70690874637217426812441090078210
W:
-0.87121863292475898443711912477738
-1.83975072128999328491261167073390
1.35272328768802085896538756060181
1.26842289641804151223425378702814
-2.08105386003235004466205282369629
-1.46100752308648140775915180711308
