mlp_weights
I:4
J:5
K:1
V:
-2.10926764509515729528743577247951
0.12185266957345521066091720285840
1.29775723939016440766636151238345
-0.58599473455849215852708766760770
-0.80191166831986748775307205505669
-0.21481108362197878780541770993295
-0.74050937474156186546281332994113
-0.08841133637661341415636684359924
0.02079630859364830358648745800565
-2.69347974607010520742278458783403
-2.96222548239278093973325667320751
-0.53608823757323098568861041712807
-0.05831226685685041155604579898863
-0.72997059531883046190614550141618
0.04977574678862463353201661675485
-0.20130393755507491881928672228241
-0.91534906847033359333920543576824
-1.09431431952460056500342489016475
1.31512412984951665428923206491163
-0.94662450150716004326767460952397
-1.49259354076639549901983627933078
0.42447569086495018364502129770699
0.37361809503624976436242377531016
-0.95762727539216918604125794445281
0.70004275422125306072018702252535
W:
-0.47465520445952119610311115138757
-0.07730957431165463855649022661964
-1.63041059503392360419127271597972
0.65096641218270545614643651788356
-0.73439141043201960901143365845201
0.04301748955569838217538602975765
