mlp_weights
I:4
J:5
K:1
V:
-0.91403307603514083456985872544465
-1.36846066979903335791846075153444
0.74963591506083671056615003180923
-0.34825807018738297315962881839368
1.05682349353395310664893713692436
-0.05486317804185052854348825235320
-0.84042852312973215234137569495942
0.43220220802780418001276530048926
-0.65655554233074020498150957791950
0.20244356470183777485516429806012
-1.17060794579889493327584659709828
2.19488102785655048165835978579707
-0.59196740562905714178043581341626
-1.94268224715287085579973336280091
-1.72444192555216280204888334992575
-1.29862378568435876680098317592638
-0.77892447902181927155140783725074
-0.64177003681864430717496361467056
-0.75350939793316806802891960614943
-1.40802071487137925309696129261283
0.22090084074456939333686023019254
-3.25712494700721499896189925493672
0.83808017616040109132313773443457
-0.00761227100599635997379976970478
1.37792804167550642091555346269161
W:
-2.34260455803604639157811106997542
1.01278410456830547659023977757897
0.03672834299840719435303881823529
-2.11991161520246462757199878979009
1.10079832704661817466273987520253
-0.77396973910886857073165856490959
