mlp_weights
I:4
J:5
K:1
V:
1.05124883190952034262011238752166
-1.08743782891730056405776849715039
1.66696625290680788822328395326622
-0.67576745209064681407795660561533
-1.11219237303480689149637328227982
-2.13170284539694199210657643561717
-0.38590423646796018219973234408826
-1.96408168370759406151648818195099
0.35134883733937694039184407301946
0.39004901061413460583437995410350
-0.46598084100668024642999398565735
0.50805337405470230027759725999204
-0.12555367141527057350813834091241
-1.41378365411837192411326213914435
0.34808689365882933275386790228367
-2.21597825863495057063801141339354
0.71689107947224917083417494723108
-0.38055248129335333961975607053319
-1.26373629737030501729577736114152
1.40687879970229356985100821475498
-0.07264616099129714288373804720322
-0.70713109628235659709361016211915
-2.72021311486654049360822682501748
2.81027538449908265150156694289763
-0.33446874990791741755202792774071
W:
0.58911189908621897082241503085243
-1.11111892986862748067267148144310
1.13960629133833224457816868380178
-0.53591425462975095239670508817653
-0.01547373096559024469032195270302
-0.12949859146354689154456707456120
