mlp_weights
I:4
J:5
K:1
V:
-0.62378228332464324967787661080365
-0.51291690478406093411933852621587
-1.40503698368047791333879104058724
0.21777522300017504441882465471281
-0.36698970417560866641437655744085
-0.59352582446645263392071001362638
0.42791084652136979205039324369864
-1.49074856117874809946499681245768
-0.06023608955347270477176380154560
-0.32712827781155856543549020898354
-1.87307528208508555778166737582069
-0.37207919100555220115467136565712
-1.19749645954328842734071258746553
-1.74238979737073140796610459801741
0.50408724691858142197276038132259
1.77929896755400496211052541184472
-1.04698241510748024651888954394963
0.12466452790366354397288972677416
1.24839488998319048107532580615953
-0.18546167820570497175580726434418
-0.41178396417592044720379362843232
0.35714029481169773383442134218058
-0.07925192418602322597109832713613
0.65774025042675243746259639010532
-1.29918725812235780203707236069022
W:
-0.42941723153747857200102089336724
-2.08358193053970985886280686827376
-1.12683840323881301337394233996747
-0.63599423923848219519783242503763
0.79606349572418633186998704331927
0.12507384951115146920486154158425
