mlp_weights
I:4
J:5
K:1
V:
0.15543468232078522239802964577393
-0.96196423826688637337412046690588
-1.10384024287612114711976118996972
-0.05827547088924928814224202255900
-0.84505323018168398974125921085943
-0.90597744304879923582518586044898
-1.50045438026531652297990149236284
-0.96602804808007192161056764234672
-1.44707879926287508176585561159300
-2.18709980609347809377140947617590
-1.35671829532571885934544297924731
0.93964719492459058969302532204892
0.84585157164726010314836912584724
-0.94908805715405930580885751624010
0.25946597335093868341715506176115
0.20982589803378035031578008329234
-1.03803465982116116528288785048062
-0.90844246631777436640220457775285
-1.04207094167166047782302484847605
-0.07195261926816438891041372016844
0.53966106765874666262305936470511
-2.38615600193601684608779578411486
0.91552117890352469053993900161004
0.85074095452848763621034322568448
-1.43545385333103836522639085160336
W:
-0.76938680418888416578937494705315
-2.22205268545691136949926658417098
-0.99074009219912195778334762508166
0.65266073372586663747796364987153
0.22465151546912387470200656025554
2.25938462663504813221493350283708
