mlp_weights
I:4
J:5
K:1
V:
1.67963458811028010231325424683746
0.52946857950110559620782169076847
-0.28736882901200028195276559017657
0.43331783612603658184525556862354
1.81599027250941680300400093983626
0.53235693490333946265025133470772
-1.62099728701346079695611024362734
-2.17245184880016850570427777711302
-0.97254363674313215604172455641674
-0.79121460305670043844372685271082
0.13500910440653529631660489940259
0.56631618422884910657444379467051
-2.28263378378673875701565521012526
-2.73899382774132549300816208415199
-0.81291916687612231218196257032105
-4.15764144371707544678429258055985
-2.33831526672430012325776260695420
3.98404947701977585339250254037324
-0.29053049948501502575126664851268
-1.99707839231406492075393543927930
-0.94529906251738637923409669383545
-2.87500436533162151420128793688491
-1.26003683072643712925753334275214
-0.47818338570426172084992799682368
-0.85530358579184084799607035165536
W:
2.59242760444135322828174139431212
0.81309661663547239118798870549654
0.09413511783704542335016185461427
-1.08325397003449319655032923037652
-1.34100570252009521077241060993401
-1.14721628288342314405667821120005
