mlp_weights
I:4
J:5
K:1
V:
-1.72311761414610797871205249975901
0.31076418400950855946973661048105
-1.01085817077574047218035957484972
-1.47016445683179797221384887961904
0.16021441040155759427676684936159
0.47334889652143663507644077981240
1.33882241681702240931883807206759
-0.22325447315365748446325255827105
-1.61975048688041756150823857751675
-0.83480954330241141647661606839392
-0.65866325029636363375118435214972
-2.22897258952410481924744090065360
-0.50053411213164045179269123764243
-1.16371148250878575503008960367879
-2.35366553972825176543892666813917
-1.51711270271895637407055801304523
-0.90504396827584399076727095234673
0.34893908783746474533415948826587
-2.14954746427469434166823702980764
0.08447961505495077405569759321224
-0.22416408767457660089483795218257
-0.58076966618573255818347433887539
1.71394918638814885980536928400397
-1.30813662330047897341955831507221
0.72883318737216229443731663195649
W:
-2.06439771763249302338749657792505
0.72993108079756674477778233267600
-0.31284999516256928320245833674562
-1.25486985722921873254165348043898
-1.00714115065862142017749647493474
-0.03415928110646640480929647765151
