mlp_weights
I:4
J:5
K:1
V:
-2.78747223273656752340343700780068
0.86538721222856274106760565700824
-0.01980310828246523852103067042663
-0.06340214903946046753890897207384
-0.65409606184521906779849587110220
-0.43489905486932878275752045738045
-0.48510368152341742931099588531652
0.35636979555338516023610395677679
0.46584739695249588464776024920866
0.21693762336711466809369142083597
-1.91901373253892804093823087896453
-0.82492798807755496337534850681550
-1.50151556640314320922868773777736
-2.62015839356379576230438033235259
1.94164666279855757657912818103796
-0.23236555812600623305286262620939
-1.17809044328475076568452095671091
2.89861782542493573444630783342291
2.00946947081705173943078079901170
-0.61433165417138446695588527290965
-1.46044991657693423725561387982452
1.75068428985341895121052857575705
-0.78858341321009106650308240205050
0.77294423432968661913378127792384
0.38708346941776633487464209792961
W:
-0.74929029099760591225987127472763
-0.41879654648231312563666506321169
-0.61538495346067645375143229102832
-1.08412870560481433557242780807428
-0.01990084157324409352973759723682
0.37143393193314655498227239149855
