mlp_weights
I:4
J:5
K:1
V:
0.32944745562065802513274093143991
-0.19696596857597040153287082375755
-0.40945185376475101701743142257328
-0.21673321546746249222081814878038
-0.36611407176122062745449170506618
-0.69311013279334598990999438683502
-1.29207776421824505064250843133777
-1.27804873600584256720935627527069
-1.54587306571296156931794030242600
-0.80380357021926884808493696255027
0.50516778938293871448195204720832
-2.74463212430815417519625043496490
-0.24636034160124245517842211938842
1.09168991158716366385306173469871
-1.08787687729549720216937203076668
2.04552004007016119402351250755601
-2.23749445643349575973957144015003
-2.23170320098401431252455040521454
2.53564725382044642287837632466108
1.55498549314852585467860990320332
-0.76982333643110367749073930099257
0.61063434247308723268332641964662
-0.89567150781374649248789410194149
0.12249345582292450740347078408377
1.13115431102398589224833358457545
W:
-0.01966352362889484811647733408790
0.77055124058519086638341377692996
0.18897325656597718790408180211671
-0.14683452191361107130873620008060
-0.47954168670687957742870821675751
-2.41576656154473168314211761753540
