mlp_weights
I:4
J:5
K:1
V:
0.97767276110974787872720526138437
-0.20111633796518035843803318130085
2.17527103705582458559320002677850
-1.62732862659434007746028783003567
-0.65556263577437823286686580104288
-1.98514434320050381366229430568637
-0.69385543028450347158297972782748
-0.40620798191210244487692193615658
-1.50670634183176321840846867416985
1.17863910021291462548731487913756
-0.80326240325071363024278525699629
0.01280057592110756675696237039119
-0.38529774796532062497433912540146
-2.40673253049238056178182887379080
-0.67384988103844833950972770253429
-0.39551999499879952892911205708515
-0.54778956704637793428958048025379
-1.61944832267338512110654846765101
-1.67214838953940581056656355940504
-0.52889050689449346176473909508786
-0.62166528625859229784111903427402
-0.44904150356292904522348408136168
0.57579357252158014368603744514985
2.33189183104501784882245374319609
0.00160621010525999197149360497860
W:
-0.08119213429353720756775913969250
-0.82803271531285049800175102063804
-1.72467592458480201145221144543029
-0.28511991570006267604497907086625
0.02643498273030998879651320976336
-0.00631117889834708137297702990054
