mlp_weights
I:4
J:5
K:1
V:
3.12838377607915241185310151195154
-0.55133069125406219956886388899875
2.30133335053289567184719999204390
-2.59637439180980100772444529866334
-0.55493770319715074457178616285091
-1.45595136620040421782107387116412
-1.06041589373684064234737434162525
-0.61569170920756066678336537734140
1.26887344570434468238318004296161
-1.42010558561375854758068726368947
1.48759397681787608469505812536227
-1.91821498419427727277764006430516
-0.67687563624614510704446956879110
1.20677573052308639844909521343652
-0.71721642732645929374513116272283
-0.92599015970469766845241110786446
-0.16980312457872800968594617643248
-0.50984175222711181074686237479909
-0.66035999813488455156829104453209
0.30888922258089518413370910820959
-1.10095147740114662759935981739545
0.00102606673200308657484258745285
-3.53987287575819520313302746217232
2.32269954256182131757668685168028
1.01255539983215636645752510958118
W:
-0.17526753070179246218884827612783
-0.55251481084383424757788816350512
0.19268606603314220038214443775360
-1.31176047511955529145666332624387
-0.61835024270440064331211260650889
-0.66720933883598476654697151388973
