mlp_weights
I:4
J:5
K:1
V:
-1.77229399184073299622355079918634
-2.62468532985801106249823533289600
-1.39078405141523542276615899027092
-0.03943602292192757013955528577753
1.03681349496432506640530846198089
-2.29413002424583023497461908846162
0.15199320447386738264228256412025
-2.61680695941710794727441680151969
0.01267919575393881836955500830300
0.63849457317019930879808953250176
0.08881206204528127590158703696943
1.11715110198765010807164799189195
1.40528559592933000033099233405665
-0.93511089802224689471188412426272
0.37764341669080314645157159247901
-1.97403452449249705580314184771851
-0.38291400371124761914387590877595
-0.08080268403128137988389312340587
-1.93040122584715900799778864893597
1.33687476870727661726334645209135
1.41990195150727083195363320555771
-1.42908268785220493590770729497308
-1.13552293122255854029845067998394
-0.54884245171956858033723847256624
-0.30848919463213853031646749514039
W:
-0.03341957075997797899091779072478
-1.80790720998102383276773252873681
-0.58597172150332754725354789115954
-2.13597408777149144754048393224366
-0.67992257003193490305648083449341
0.47089500474498580118165591557045
