mlp_weights
I:4
J:5
K:1
V:
0.17094540210785458267395142684109
0.36561370414080723856287136186438
-1.42622632123638970469414744002279
0.82548773584445744866400218597846
0.90768112667825406880695027211914
-1.14679947764375289587235329236137
-1.93164781015164233046732533694012
1.16588026561498381283854541834444
-0.37071424895087767836798775533680
-1.06939417165076333660067575692665
0.57912821255876867354572823387571
0.12422871867775983623083391194086
-0.07887008446578983034136456353735
1.04974067582047059232763785985298
2.06856951038155445488087025296409
0.60962144549699848194990181582398
-0.48788957884468797665533656982007
-0.82762286537450091561396448014420
-1.55417050703441272929694605409168
-0.97570447663791726178317276207963
-0.85684795594751361758056873441092
-0.96278086793226735906614521809388
-1.22074011754792732808994060178520
-0.94193159312918606218545392039232
-0.16671946227432088427633516403148
W:
-1.44238634446027091939868114423007
-0.45942964295149651965388670760149
-0.05881936204091703368490584580286
-0.54525198743103708842738797102356
-0.01636940896803326314645765648947
-1.19398668339068292354454570158850
