mlp_weights
I:4
J:5
K:1
V:
-1.04811737345292166345700479723746
0.75554017190291689054504331579665
-0.13085266394679864743189057207928
-0.74971534498316538819295828943723
-1.51744534215959880896207323530689
-1.42843899907628335554932164086495
-1.29987530666800621403922377794515
-1.38285486613529617905271607014583
-0.88402958631979033921055588507443
-0.01178523911183246286604742181225
-1.16003668704973339487196426489390
-0.50708128846280953183622841606848
1.61784705815161977682237193221226
1.16888600212940185762988676287932
-1.59897934546184616877440021198709
0.07178167883655103831408439418738
1.73965607289493906506550047197379
1.05161180953847455121774601138895
-1.03078159270957003812441143963952
-0.81379596415866872760602745984215
-0.86438885516124552843564288195921
0.57139830395917767802416165068280
2.45975601017373923795616974530276
-0.07357411516738955603589289466981
-0.29312666269967935228635269595543
W:
-1.14102170654323975540478386392351
-1.55691421522046535841354852891527
0.45260628298085736620492980364361
0.37374194095072521548672739299946
-1.32726677854212771201503073825734
-0.72670703902276767571777327248128
