mlp_weights
I:4
J:5
K:1
V:
-0.64071705628187736181189393391833
-0.05080153257385627840747588379600
-0.12171231354434486338078613698599
-0.59960616419211998362470694701187
-1.51225422859986924351005654898472
-0.43700269526310625556320133000554
-1.35641183680035792846751974138897
-1.72441016955674020216804365190910
0.85971797844865249782486671392689
2.33901994997468509751570309163071
-0.39791370356195399082821495539974
0.38378941542307087875229854034842
-0.60449199855401880565608507822617
-0.52533792486772656893379007669864
-0.96382523859131441490433189756004
-1.72492721518831992888465265423292
-0.63336469555753627247440817882307
1.11021692926912263210681430791738
-0.61718353340282128272065165219828
0.50317509102281920974064632900991
0.02986083379874562848677044257784
-1.29378558228068407665034555975581
-0.28877583743409140915048283204669
1.87053250304020801664250939211342
2.74924424297917813220237803761847
W:
-0.24397643577034749950982472910255
-1.26717007654417734840990306111053
0.45534669948794126437263685147627
-1.57276249906624321361903184879338
0.42773839861174806076249410580203
-0.28109397862215174113131865851756
