mlp_weights
I:4
J:5
K:1
V:
-0.12996955713499697138146871111530
0.71946365745002760494486437892192
-0.73453437775033425527482222605613
0.72146105704185325979693743647658
-0.47821668072875134214427816914394
-1.60296713203704754846512514632195
-0.90207362829421766647897129587363
-0.21613241091436249941004632546537
-0.75142012524835677389489774213871
1.42216197771289531992522370273946
-0.83302346740258659263389517946052
-1.12412764411050036805761465075193
-0.63873317496489367961487459979253
-0.49646110669282067506813405088906
-0.66693104188464746862052834330825
-1.16783354700608987819521189521765
-0.73404724701903623085286199057009
-0.07282509350658956936985788388483
-1.06556433063321787102495363797061
0.38678788912687300793891154171433
0.83813661037634534789475537763792
-1.18366761769027806217025045043556
1.18869346335107661793983879761072
2.25740389048194023402515995258000
-0.03127439676262894902025735177631
W:
0.36689358693227491770016968075652
-0.83304387386078904143005274818279
-0.98189668772783311734286826322204
-1.15966169387751749653148181096185
1.85127254967916310413045266614063
0.56854953991334578056182635918958
