mlp_weights
I:4
J:5
K:1
V:
-0.22695886428540198997971799599327
-0.31589857224738437935229740105569
0.76975984201520641914129328142735
-0.41789578805983168541260397432779
2.19610403578696677939774417609442
1.03198509858768638913772974774474
0.30397599503817118726800572403590
-0.50872304087927278093417271520593
0.74526015228825481795382756899926
-0.77241275748081283936130603251513
-0.28452124195339717482866603859293
-0.03998395562821592530422520894717
-2.86242989871891850839347171131521
0.91670003042296288597867714997847
-0.39145869245913933465175205128617
-0.31365655193175179249465145403519
-0.11418763598443790185932300573768
0.61135275899526453358134858717676
2.47394327813191727827302202058490
-0.05440771140419858875603154046985
-1.55221257128857881291139619861497
-0.17901762257362963115525644752779
-0.36637859196990518739767139777541
-0.29321349390331502560158583037264
-0.59879680652584010847050421944004
W:
-0.17612547700230229974494022826548
1.45237463053017656910981258988613
-1.20687492906399795877803171606502
-1.43145564954063697626907014637254
-2.33135486069830077937581336300354
0.25829243627963421880977534783597
