mlp_weights
I:4
J:5
K:2
V:
-0.58354970021055130313669678798760
-1.86929651760898907220109776972095
-2.82372561676561240062710567144677
-0.08293539003955024968561815512658
-2.32827385857087598708403675118461
-0.18725580600906366335323127714219
-0.52328551922556609810044392361306
-1.93523330820228833815122015948873
4.16704597281558886123775664600544
1.97036562858302843892488454002887
1.17381837925395116073445933579933
-2.43700840734824319966378425306175
-2.76079952037254239272101585811470
0.46917999204899973886284669788438
-2.79792468413406192340175948629621
2.24334232539616929003045697754715
-1.82099079885951797841414645517943
-1.94275320072227652978824607998831
1.79884862982343562975984241347760
-3.72728387340975420016775387921371
-0.02798686803238607800903281486171
0.91608766391526652572707689614617
-1.20632610243149795969941351359012
0.07334165302215320259016095860716
-0.93737182975765298564851946139243
W:
-2.68621090929978345585027454944793
0.62195407962550697256176590599352
2.45435457199892104185323660203721
-0.20384441703609035290156725750421
2.70824216351779600842064610333182
0.69241660959193196411831650038948
0.50569316370965511353574584063608
-3.39745299134538836227648062049411
-0.85516526265136594275872994330712
-0.18173246325426387071111378190835
0.87461884569795200761177511594724
-5.56743114148933049278866747044958
