mlp_weights
I:4
J:5
K:1
V:
-0.60725895462556112036622835148592
-0.49336778794472291309602951514535
-0.07616394291722006215650253579952
0.97072649780681530273795942775905
-1.34608894799829648114553037885344
-0.62597882241260927038695172086591
-1.79061995791834860369817761238664
0.33340416721936882993304607225582
-0.64376151484051469253699906403199
0.40711369363319865888328763503523
-1.08272610156783821722115135344211
-0.33952005862271755765036118646094
-0.19672154370984815119349775613955
0.34685630106670184424899616715265
-0.39035320500917475294855307765829
-2.79592959411549601966839873057324
-1.19409327590109870520507229230134
-1.66025474993633537224013707600534
1.40732044239713904865141103073256
-0.92683675038280399771650763796060
0.90810422000809321030345699909958
-0.13891712925843233139566734735126
-0.65100804235845877165900219551986
0.09979489132838642584388821887842
-1.27736181259981318447671583271585
W:
-1.01741740907246991376666755968472
-0.73368389697240066205097264173673
-1.58795569881078901808280079421820
-0.46702085191543063480423825239995
1.37211758275488171499034706357634
1.26583485244275451009343669284135
