mlp_weights
I:4
J:5
K:1
V:
-0.71967947256333641981029813905479
0.65531340489637168733594307923340
2.58874639115749394235876934544649
-0.83601323432614960129427572610439
-0.36304038624025924963945044510183
0.77819468202522112942887133613112
-0.39212624336129842106402065837756
-0.73016864755425059385629538155627
1.88568357006402043118953315570252
-1.88577654361047875042345367546659
-0.28910374051013942864329919757438
-0.41591942680412341548645827060682
-1.51169309763311843219923957803985
-0.49046168867808026536891929936246
0.31501785595857101363037600094685
-1.62278898799162663024731045879889
-0.22600147083217941856858601568092
1.19279089004130733897568461543415
1.15244097253974109307250728306826
-0.71008281926596927835504402537481
0.13441212763166943133796848997008
1.42830956692352373238463769666851
-0.88223627620426459117197737214155
-0.45733281820004895168452208054077
-0.27502511565422904649125257492415
W:
1.16222004944362011791270106186857
-2.10207062709106029529948500567116
0.15087972857892703593130079298135
-2.37608388768656686451663517800625
-0.06536213066358725898297166168049
-1.93717602510097952617229566385504
