mlp_weights
I:4
J:5
K:1
V:
-0.05345423060803144998942570964573
-1.13077485882987094356622037594207
-1.90732966497320011178828735864954
-0.19818340118317073761389224273444
2.03492730795489018547073101217393
0.17167625352832488472287764125213
0.66753064324292765707724583990057
-2.66018465307248730411515680316370
1.50324107332270195946932744845981
1.72729651082196244971100895782001
0.44011158305952147173911725985818
1.00577284964656410437555678072385
1.14092928239271396151366388949100
2.05827872059780192515177077439148
-0.12473304354204227395452875271076
-0.84011605495370189622406087437412
-1.37280262637385774837639473844320
-0.95616014212183542131384683671058
0.40969652830982322688768704210815
-1.13792937695973939149496345635271
-2.54892690504571994836169324116781
-1.17154842794474300937679345224751
-1.20735866905078204069923231145367
1.21664438913847816614577368454775
-0.37149796977292093291822538958513
W:
-0.35616002381312189539741552835039
-1.50270262181400116041629644314526
-0.95493103328079442793097086905618
-1.67023315472483413479665159684373
-1.60296858114986640053700739372289
-0.09883540746273446198078005409116
