mlp_weights
I:4
J:5
K:1
V:
-1.40567281849412895056161687534768
-0.87113957722813195605482405881048
-0.90695690077288171337954736372922
1.89683783216888701694813335052459
-0.14866012508644371736821199192491
-0.89812754937116767717242282742518
-0.87451409752745690173725279237260
-1.43759622260780628444365447649034
0.82743576061799195553447816564585
-0.68442876938278618403899145050673
-0.21561784786784490841604622346495
1.35034518730122821139616462460253
-0.58325980950098810229320633879979
0.54905040047186381979571478950675
-0.43879759788006944543070630970760
0.08826059470638421278199103880979
-1.43265306839792949666900767624611
1.66080645810906224468794789572712
0.00401646410379870658080569967296
0.03825701594726266252521895694372
-1.89052400047165214402866695309058
-0.49836321179072018416889022773830
-2.06330922292695984054944347008131
-1.43399365843793868968703009159071
-1.02825710135421610758044153044466
W:
-2.65132585853974234169072587974370
1.06433379285467344388393939880189
-0.93554795937649037895766923611518
0.28517470280579299002354787262448
-0.71670895430158265693165731136105
-0.07513544952187996284198590046799
