mlp_weights
I:4
J:5
K:1
V:
0.70110133837422250469018081275863
-0.10295551414723010108520639960261
0.93902604938986011795520880696131
-0.02616259768908323068981047754278
-1.31127399763104990348949741019169
2.12704957561632523876937739260029
-0.85374117769202617633794716311968
-0.66682647555702556640966349732480
-0.24070814489956526838199124540552
-1.44533299187609931557574327598559
-2.81626167008954197967796062584966
-1.73219906124024602966926522640279
0.64027500979371043676735553162871
0.82667521229707674468301092929323
-0.27404108410121785777135983153130
-0.93208780563523296880390489604906
-0.80529318727434928693043048042455
-0.30115916527309655181809944224369
-0.51076434368437650945793393475469
-2.77166360531871536210246631526388
-0.24288171815384074214705378835788
1.13259622126448267209752884809859
1.86430667464610833050642213493120
-0.28283964385413828956927773106145
-0.05881461397993950623863668170088
W:
0.23310602104958422220448710504570
1.08453880361305254886872262432007
-0.98986449807744925077912512278999
-0.60697924278820969412606700643664
0.34052216982513344722960368926579
-0.40695031632834427481881789390172
