mlp_weights
I:4
J:5
K:1
V:
-0.21512878300144314125397215775592
-0.55289699098314226688444250612520
-2.79731240874598929835315175296273
-0.05846373917004805964570124388047
0.86726300143364654093858234773506
-1.46707261894178619954232090094592
1.15171053769242837105934995634016
-0.13322995226308670391190958071093
-0.54819801253347821834438491350738
0.59477322958566680721759212246980
-0.99720261260974629724529449958936
-0.66588797267226373932658134435769
-0.52786035486723226206606796040433
1.73318134173445259627044379158178
1.64082419625547148989141987840412
-0.78594261761946948574575344537152
1.43371842517454761711803712387336
-0.27949725056769969544490095358924
-0.97456991244142965324925853565219
-1.41172760373114924981052809016546
-2.02937320508031149302041740156710
1.37070648198730160594038807175821
-1.81993345723747768083455866872100
2.58527800149114383998494304250926
-1.32500627167106643788940800732234
W:
1.76068715872245551423702636384405
-0.77210405652883584703971564522362
-0.40601101345392875963113965553930
0.37884485498996345320676937262760
2.00934083925781070689708940335549
-0.18697669843864866967564353217313
