mlp_weights
I:4
J:5
K:1
V:
-0.71981031105942738790304247231688
-0.30164389704750921294973409203521
1.99040900222008132480766562366625
-1.50546481951792432418812950345455
-3.53627000521702106183852265530732
-2.03229224406984965156652833684348
-0.38393695246237857787718894542195
0.58859335359174425050809986714739
-1.23798871793161668897198524064152
-0.21545427765482325077606162722077
-0.22035327215508856979475638127042
1.53422491366645941113233675423544
1.13356122430548311719178400380770
-0.93832340066124597655061734258197
0.33397806554881326324135670802207
-2.09603743936324748986521626648027
-0.25216748098004748701583821457461
1.79137074633646253829510897048749
-0.49443297092274912651888030268310
1.87632459850336874573883960692910
-0.85523207437435089239841090602567
-0.80805640754820151627768609614577
3.07618236579010728704020039003808
-0.58796719596341584512799727235688
-2.53549829068374066309843328781426
W:
1.55183778171341857365916894195834
-2.75898679161823201511083425430115
-1.99537650576586211847995855350746
-0.75903161064423452231153532920871
-0.90818753107545291403113196793129
2.42261253304002277531026265933178
