mlp_weights
I:4
J:5
K:1
V:
-0.89737356710414606375536550331162
-0.72898024420897800101926122806617
0.10164164756242363707450238052843
0.50743085804892540391364263996365
-0.89861408319035052105760996710160
-1.61522360822250954370815634320024
0.51438769268442163795640453827218
0.82714557203185889999730306954007
-0.18261378474540784777602198118984
-1.03700047946717721636389342165785
-1.08124906532518427759725909709232
-1.09491234018772765068661101395264
-0.96833791559645110424980884999968
0.84127919446394860969462570210453
-0.92028491822824209922515592552372
0.67995339349587624599990931528737
0.20324872509132288489475115511596
-1.66099403029745618098900195036549
-1.65142097977914548145861317607341
-0.30601987714643674731718192560948
-0.45003305781300545485024144909403
-1.76745380343515656740294161863858
0.22715176187848279409919882709801
0.79214264202872597397941945018829
0.46958568757162449935904646736162
W:
-0.99550635325158376431886608770583
-1.45598954035972072418303469021339
-0.38164134993902509851437798715779
-2.04027744808285760313992796000093
-0.98914606835631613268589035214973
-0.42201242788002080175147057161666
