mlp_weights
I:4
J:5
K:1
V:
0.46942839106880346333738884823106
-0.57566129367075780098872428425238
-0.27806861162606499870975085286773
0.19341099177846154955062729641213
-0.34616291986630726151830117487407
-0.72607459164360910186530873033917
-0.29646660713761197047944051519153
-1.34521270036423579163908925693249
-0.55069526475931562803367569358670
1.52314924295929410291705607960466
1.04524207543973779444002047966933
-1.00286308458122608300300271366723
0.34107631119608983194524398641079
-0.92740431529326317061645568173844
-0.60928185377133325939524866043939
-0.73600486047108204523681251885137
-0.30644873256242288750428315324825
-0.87062946307167576875940540048759
0.95867942361508229343058928861865
-1.76908946777876829870024266710971
2.01759547502232372551134176319465
-0.03589750184331114146729646563472
-0.16925356088257623166093424060819
-2.06701126132452150940821411495563
1.18593006077064400116682918451261
W:
0.89319407989208698950278630945832
-2.02772231275508563186349419993348
-0.33783183616837653140407837781822
-2.30750465028454243565647630020976
2.64048657029177702426636642485391
-1.24831764191642613504029668547446
