mlp_weights
I:4
J:5
K:1
V:
1.33163231687247018975028822751483
2.40870983119486714585377740149852
1.31306111569134142946779775229516
-0.61206935758589720020239610676072
-0.79952972230565344524677584558958
-1.43841930281468921570819929911522
-2.25230476517004163383717241231352
-0.09501928692047278968146883926238
0.94804800006959877300971584190847
0.35657575788208806244483639602549
-1.08888165717551643751903611700982
-1.43919326411441739210772539081518
-0.59419253445203779051553283352405
0.34677046561752011832879816211062
-0.55225683416183679597111222392414
0.13902344867971455633082200620265
1.77646505152885891831715525768232
-0.52307775363057396056376546766842
-0.32293887268660093070593575248495
-1.21892399479800306316690239327727
-0.76756087728393085356515257444698
0.68855338331134818830037147563417
0.59792714221275211627926182700321
-1.92775247297742402530218441825127
-0.49380492455886171310197596540092
W:
1.72571541897222946460033199400641
-1.04177812211191023195056004624348
-0.89501724907109292406204303915729
-1.60508678616569055996876613789937
-2.57729770139135316853185031504836
-0.05466173250583801490609658912945
