mlp_weights
I:4
J:5
K:1
V:
0.87093862208478434183689387282357
-0.09597764774983147395559512915497
-1.10456782671739639489771889202530
-2.84967911187798517147484744782560
0.89714425334314074067521005417802
-1.92436986177500579664467750262702
0.04149847730778724597122675277205
-0.61161822492507389448235244344687
-0.70285061843436436035403858113568
-0.65499044988317378646058841695776
-2.48717892120957717594365021795966
-0.22416216648602241279242264226923
-0.30985941364632535455214679132041
-0.40115126139559792450839381672267
0.29197408432826044144547950054402
-0.51019761144774822270164804649539
1.64560464786496885025712799688336
-1.94531604011328185244167343626032
0.20444341751394651263140644914529
0.10043593742702394688848244186374
-0.83723682521974396308905852492899
1.10001754991121725169023193302564
0.73890788458008693773138020333136
-0.91478085165689870805749706050847
-1.59547608200194312999542489706073
W:
-0.80457966614722309373064490500838
0.57485951532089551996307363879168
-1.83932693785664436170179669716163
-0.19082284536960539278460657897085
-0.03266374389549886458894434326794
0.54923913454415673740527381596621
