mlp_weights
I:4
J:5
K:1
V:
-0.64128935388565866393406622592011
-2.20011093844561322896424826467410
-1.16758574745818588525025916169398
-1.30970291278867456696843873942271
-0.63633628477575121529241641837871
-0.44156209820291736356523415452102
0.57295419611566833495430728362408
-2.78592042835205866424530540825799
0.05648176537025946519765540188018
-1.28298918096637182273411781352479
-1.61384635450195790262739592435537
-0.03631058581256163542150261491770
0.14714108321827593095498798447807
-1.27778078755852453340935426240321
0.53458963545517490523195647256216
1.92084461150219665270810764923226
-0.26636175350801516437115878943587
-0.63863466107546851269205490098102
0.05698214321991362796282487579447
-0.78162881962108288202983885639696
-0.01084835559536768967436870525489
-0.94697788709158270403776214152458
-1.27052240266806837354351955582388
2.86196854601698769116069342999253
3.13133766379322242556781930034049
W:
-0.74844134903517212098478239568067
-2.02446594594284690060703724157065
-0.78951809947347495466374311945401
0.98987773372262943816224378679181
-1.89734992396685075988216340192594
-0.42606886720455683370545330035384
