mlp_weights
I:4
J:5
K:1
V:
-1.16749124530904802021780142240459
-0.11921495569360904265288070291717
-0.02086938185278613966389116285427
0.30579829023608362525976644974435
-1.60746150182762281843906748690642
-0.54330510892437744452365677716443
1.62855900088371208234150344651425
1.18927406661808521270984329021303
-0.03337967754448376012099686249712
-0.31722669403066200422003362291434
-0.89698363132889324944585496268701
-0.44533435789586278685803222288087
0.60526400123010692944092170364456
0.49129143392799368150747341132956
-0.67692547977495842737027942348504
-2.25767166709617050912584090838209
0.71557791945405602174190562436706
-0.13039027240035444554777654957434
2.12940412981999083186224197561387
0.19865699706495709708775621038512
-1.86084807005871444296474237489747
0.48630634580688975043827326771861
1.09819173338737496870010090788128
-1.54710496162486643711986289417837
-0.91574267196706715665754927613307
W:
0.06810508085910391140593844738760
-0.56008694723644081303604025379173
-1.67438637201051365721582442347426
-1.49454424047100919992203671426978
-0.64911170614086877161952315873350
-0.33464577747814472363785398556502
