mlp_weights
I:4
J:5
K:1
V:
-0.23122104446578212177954014805437
-1.49986183330214251085976684407797
0.88966361588196796184035974874860
-1.15742412431696983787787758046761
1.15501436147205471804966236959444
0.27828589352125887579347818245878
1.70130643308930862289685137511697
-0.70683194755063971648212373111164
-0.31977985521242274780107095466519
0.86570336392409363845956704608398
1.74583350113788204893694455677178
-0.06954681370037554821728065235220
1.76975884178164699633839518355671
0.91228348853420704323013978864765
-0.82474267118418953526060022340971
1.75909562331855506833733215898974
-0.96019594281786968537062421091832
-2.13560119894969924203564914932940
-0.84611803012854180927604375028750
-0.50002728971849030870089336531237
-1.22371335455279184323273966583656
-0.57015177579341513869337632058887
-0.37287274801401909529730005488091
-0.21634835656206491405484371171042
0.82101800127766655368333204023656
W:
-0.40352659882268576696517925483931
-1.61686402452528787954122435621684
3.25770651115530451846780124469660
-1.19961243089776004033808476378908
-1.17773040725940036921315368090291
-0.34609535631776022768235634430312
