mlp_weights
I:4
J:5
K:1
V:
-1.68915476890885729588376307219733
-0.43501993261097765541833837232844
-2.51170642849413905395294932532124
-0.54244860263166805314227758572088
-0.94825395143169421974249644335941
-0.52873316485122390240292133967159
1.56330355857880998193820687447442
-1.56515126431247586502593094337499
1.16776398709108897300268381513888
-0.01230366427353990488313684181776
0.47492554023723099199116859381320
-0.97127766861577469192923217633506
1.14269981467746184478073701029643
-2.47667983744802810974761086981744
1.41417803352649573689348017069278
1.06821075877930038444674210040830
-0.27516176636052858128778098034672
1.43590500290980216391290014144033
-0.78878165125904919907640078236000
1.18638672201447459286782759591006
-0.03686191022572160580494937676121
-0.90235229210665235388688643070054
-0.92268137927771620709904709656257
-0.02067064075919416987758836512512
1.70447607657514477175197953329189
W:
-0.37619542691125762434722901161877
-0.20051557340543252339060131816950
-0.24510199544580008046423813539150
-0.54619835584194109667777183858561
-0.61873730486461775424089637454017
-1.51248878029503175390857450111071
