mlp_weights
I:4
J:5
K:1
V:
-1.15925684553882191174523086374393
-0.49520506148794041223482054192573
0.04816547258760548594347383755121
1.44817668942060251424663874786347
0.55466005329099388188041075409274
-1.99445669766857625049283342377748
0.00683384509172362680784473809581
-0.02269925609112193043426231042758
1.50387399363564222554145999311004
-1.28126039613092546076700273260940
-1.97985807892243981243041162088048
-1.00085648527813209085479684290476
-0.99129409577032079337044478961616
-0.96493780745986112989953653595876
-0.10117541102079843917671553299442
-1.91572533752191498379602307977621
-0.64106425666312705224925139191328
1.15995428692851088037230056215776
-0.33395684319718293986412049889623
-0.99059820911239282459348487464013
-2.63647390781992818631351838121191
-1.12172906560834007017035673925420
-0.07516089660139133044047810017219
1.98502752195259946077499080274720
0.62158513562877193425748600930092
W:
-1.00739878637142976636198454798432
-0.09797068671402223150046495447896
-1.16301140357125754043465803988511
-3.41751022999856868267443132936023
1.36779698943813343703368445858359
-1.21994591464514678946784442814533
