mlp_weights
I:4
J:5
K:1
V:
-2.56904753187242640422027761815116
-0.02568133698705862832945001628104
0.88937643233536989306742270855466
-0.77986008192534272964735464483965
0.87707944162417617040006234674365
0.24547704090089592088297365535254
-0.46977746615853932521389424437075
-1.45625922229087145787218560144538
-0.99347014565208335845625242654933
-0.29306084602884741041606275757658
0.28179792692424837641240742414084
-0.41704380767383802952608107261767
-1.19563926151399435582334263017401
-1.04228861037953657309174104739213
1.43921692739543782835198726388626
-0.59189109912193194062979273439851
0.34399635985641169311222142823681
0.54291786146909593036014030076331
1.00132948701663337942591169849038
-0.22913189377313136763092416003929
-0.07155686909651307048285673317878
-1.96378575340875349830582763388520
1.73327857037023358444116638565902
-0.55980872564339789754228604579112
-0.23196647834329656157059673660115
W:
-1.84951459210776980590651419333881
0.07917183567384938891464685184474
-0.36512567692289049636755748906580
-0.87482821845266156568499127388350
-1.42316672029957347334061523724813
0.65766534227425610392714361296385
