mlp_weights
I:4
J:5
K:1
V:
0.27163812536122294849505465208495
-0.17584071397592182517399805874447
-0.04473128562261662055643540725214
-1.69958796676691714644391595356865
0.87967315683480640231550751195755
-0.56439850076287823021914391574683
0.17400228726101707454887446147040
-0.53471600644036076932508194659022
-2.42172098271094116128665518772323
1.25425349974744504422119462105911
-0.45413651354724654529704253036471
-0.14187331579034950790330071868084
2.10191853812295414982713737117592
-1.93230531940434935300743291008985
-1.25513745505449958450583380908938
-2.84981440166402189007044398749713
-1.49396489632395979008094855089439
0.93270839871716093583131623745430
-1.21300623437596555298512157605728
1.29537886387229628226691602321807
-0.01346709661614645114902089062525
-0.44936123183855886109583366305742
-0.90628505658159030922149668185739
-0.33638962165077135324509072233923
-0.77151963310967930365080746923923
W:
-2.15351445186542678200680711597670
-1.16847048545055676171955383324530
-2.24871955925969446710155352775473
-0.34658503381369709650527966005029
-0.09411713626024956202975602082006
-0.23407868739307319261300222024147
