mlp_weights
I:4
J:5
K:1
V:
-0.78715937017182957546879151777830
-0.79213667285178634980269407606102
-1.33849064316288512976882429938996
1.22580940194724452574348561029183
1.28412145762747642585566154593835
-1.00649311322707579741120298422175
-0.55603496941129115782587177818641
-1.28365367307764932647273781185504
-1.76489919468680001024551984301070
0.63929391940769020319379478678457
-0.48636482771652211898327777817030
0.97920502438079903839707185397856
-0.24913557431441696321527956570208
0.67268009232747094650051167263882
2.30787012565077587211703757930081
0.20436472058302285192965541682497
-0.29062451753784562802351842947246
-2.62533040474437573408295065746643
-1.05022165184409055349590289551998
-0.75989208610178649028199515669257
0.13515607650516289761633004218311
-1.25807272824603844085800119501073
-0.01329722766770047998052817206371
-0.50767102959011300988834136660444
-0.65303178194005595535998054401716
W:
-1.60419282647225092119924738653935
-1.26058716958702121679891661187867
-0.13281703620446907998520202909276
0.65590869791214889694686007715063
0.35975340799175070660709252479137
2.47605241334205494752040976891294
