mlp_weights
I:4
J:5
K:1
V:
-0.73573594530414465619827524278662
-0.08118757219588902673823582745172
0.89518192132576146491373947355896
2.06392903493141544046807211998384
0.72397637197505493311666668887483
-0.59508110793722857057019837156986
0.95276511032189559191607486354769
-0.42823657728042568981763338342716
-0.85060982237630577973419576665037
-2.24449805054984352636893163435161
-0.45065755025919435050596462133399
-0.47476582964702296330017361469800
-0.61737514940516702299788676100434
-2.44935355507311847134133131476119
-2.48615371095699089210029342211783
-1.04808054088185675922773043566849
-0.58146352953230584503785394190345
0.12535873342723544143773040104861
0.90649639504602741446603886288358
-0.06120319968517479169989314868872
-0.45135968806900411687266228000226
-1.41297395523140134621087327104760
-0.75170180757803384263837642720318
1.97244061994432207107763588282978
-0.91694798898727525315877073808224
W:
-2.71263759400969206581066828221083
0.21552131633125948262375004560454
-0.09071524266423258708869070687797
-1.72609604163885932415212209889432
-2.23820952753860868966739872121252
-1.02427716705126869989328497467795
