mlp_weights
I:4
J:5
K:1
V:
0.85119321415454152202073601074517
0.41778986855436717195999563045916
-0.91032958593224022614265322772553
1.33546119663772588914696370920865
0.18089373684755521987099768921325
-0.76324649065355154586853814180358
-1.10732947316420937688974390766816
0.34664283010165403142721629592415
-0.07804330052336588829930974497984
-0.58323761590239464602802854642505
-0.00719963580422425253324547611555
0.68428292294594661449025352339959
-0.09591348380816658303338329005783
-1.05434790102344311257809295057086
-0.56025728731876933697009235402220
0.65014250537660900342018521769205
-0.59110390498993581331887980923057
-0.29360606915205766931364905758528
-0.71066516635820742298079721877002
1.12752639005097887725526106805773
-1.30656448532221913794160172983538
-0.25318213161537211908225231127290
-1.74449395217201685959196311159758
1.28054728412932128378542984137312
-0.30342291182739844490612313165911
W:
0.19348813609897647092239481025899
-1.77726946462771717705209084670059
-0.15068448977790016574118681091932
1.07541996774183656881973547569942
-1.04352610881459417768724051711615
-0.94005901787701739991121030470822
