mlp_weights
I:4
J:5
K:1
V:
-0.13984398776790191165630972136569
1.26393380868044680198636342538521
-1.42659127539919339255902741570026
0.70267887136801365777216688002227
-1.79338024390226236093326406262349
-1.66545689204895586144061780942138
-2.27248343641945593773812106519472
1.48960518803143049382242679712363
-1.34439369798081331808248251036275
-0.32201758527622831307368755915377
-0.65750925299021667491672360483790
-0.11299630466944422801933711753009
1.32688630691695252927786441432545
-0.31265870656523475634713804538478
-2.02178851675117376984758266189601
-0.30509225583647386903507481292763
-0.63356648726346909139550689360476
-0.64088784755204930565497534189490
1.19318017612531090954064438847126
-0.07689527996331643744376549420849
-1.03307435457963325831087786355056
-0.79694146099272522576484334422275
-2.43713535714056694914120271278080
-1.84088295536212243064255744684488
-0.13217020052678501995657711631793
W:
-0.38558032683505083504371668823296
-1.84118599561224671745662817556877
-0.47769712518220369679156078746018
-2.78208457495839445172691739571746
1.09636945955729614432527796452632
-1.81844178714356141668417876644526
