mlp_weights
I:4
J:5
K:1
V:
-2.39656649338210758770628672209568
-1.15464553032153971479090159846237
1.68725922344017531528947984043043
-0.01612619506142727587860719040691
-0.08175868407753392186343432967988
0.15451841456093445836827982020623
-2.04483558606526472090081369969994
1.65257639208865492186362189386273
1.09785162188671070460088685649680
-0.81195233545952449905058756485232
-0.66824307330743615285228997890954
-0.21126471707286159640304390450183
-1.78693808696231037913548789219931
-0.56511553527690994158660942048300
0.45434916122606389121685310783505
-0.55378064922453662521917294725426
-0.13883925606680241893187144341937
-0.46078704358558081333185896255600
0.06452211556959482063877686641717
0.65042590359601659688593144892366
-0.18541635717568258345799847575108
1.33278907500114729423046355805127
-0.91598160029889863498198110391968
-1.03082029219516702056580470525660
-1.25650543467789344020957287284546
W:
-0.63836410554781664039580846292665
-0.33279671267124344424814808007795
-1.80511647667361585511969224171480
-0.28701523948618901105334089152166
-0.34675691720962237285519336182915
-0.28387103946541236698664079085574
