mlp_weights
I:4
J:5
K:1
V:
1.71908046532152858354436375520891
-0.90841677235483042629482497432036
1.06483756634260107176714882371016
-0.09890403341058678909902823761513
-1.46254321032001399771615979261696
2.36077806548291446731013820681255
-0.42472284472521654175025673794153
-0.90080588498525737684019532025559
0.65072015064265786854491580015747
-0.46560580096419063034218766006234
-1.27137652118941191226042519701878
-1.14548854081329909426756330503849
-0.52611252360541582717701203364413
-0.57594201226871499788018127219402
-0.18199450069768347004739439398691
1.00499916278899781296729543100810
0.33307118737265389851742725113581
-1.29075398212507908013435553584713
2.01661636426381818409936386160553
-1.24021033474580288924471460632049
-1.59630608630363757249881473399000
-0.47601126197262111361396819120273
-0.43711667400633535951470776126371
-1.41942736785502954255377972003771
-0.30693374127930928008112232419080
W:
1.03192983731083609555412294866983
0.36117284070057453781998901831685
-0.78795147613809757292102631254238
-0.14609858774378250978465132448036
-2.09281833451192422757003441802226
-0.96197582863451125412268538639182
