mlp_weights
I:4
J:5
K:1
V:
-1.42973744034203797959037274267757
-0.88851935330937692469888133928180
0.52957760124534969392584571323823
-1.67732481161742486008847663470078
0.14478613735604914380949992391834
0.39777060380196305189315353345592
-1.12979867187721172427927740500309
-0.53566163565252211675726812245557
0.19396788076436075054509444726136
-0.45316059259538232772968058270635
-1.53034367441521701458384541183477
-1.10086286953586887094047597202007
1.04271319815680607590024919772986
-1.66120570345239260134917458344717
-2.01913076886733033887821875396185
0.87387524880242994917978194280295
-0.61899895831440931992517562321154
-1.63422853424725134097172940528253
-0.15210291493098154758101259176328
0.47444542746272971855958644482598
1.13017269477197901395015833259095
-2.63589531653471498273688666813541
0.09488321131144664133394428517931
-0.97140356090565038726936109014787
-1.49851388308257926773592316749273
W:
-1.51228855108518422944996473233914
0.97129368737723398297134735912550
-1.46764451511516758053232933889376
2.16223708750893539587423219927587
-0.05639495595655679566204909747285
-0.51967511453408588018021418974968
