mlp_weights
I:4
J:5
K:1
V:
-2.24591532798084303479413392778952
-0.02921657073411734750756352241297
0.34417054854276357689357723756984
3.05896793942276534750135397189297
-1.57846282844897811692419509199681
-1.48820912912897806990031313034706
-1.00641157923928847850447709788568
0.01202663812662306541678702842546
-2.09207809922128973312283051200211
0.78873973784932382979917520060553
-0.01095294900088839007423757720971
-1.08113108041164607264761343685677
-0.42501951499933815492582311890146
0.01308539672503507278467083096984
-0.46011664158935000612515864304441
1.88875067670179985768186270433944
-3.03055930939014217528892913833261
0.67189306217972910584279588874779
-3.02129224708825505629761210002471
0.32706222765412251707317636828520
-0.87235884972134003501054166918038
-1.12185318269826250769938269513659
0.51448136509373110225595837619039
-0.51364777298925834436715831543552
-1.10845779662990073788364497886505
W:
-1.43456302510821998019707734783879
-1.08239528337462176388328316534171
-0.09032582645779210772651879324258
-0.01124502583455262889888803812255
0.87364151988860827557914490171243
0.00132917227714150765205403104119
