mlp_weights
I:4
J:5
K:1
V:
-1.21746404091523774404492996836780
-0.11717937970464650798696482070227
-0.04247949666122077805319179333310
0.44140080410418913725578704543295
-0.30201549218959444775833844687440
-2.78067707805855413027984468499199
-0.43023768998079270353684933070326
0.23517949162136533858280529329932
-0.14911083335244906811212217689899
-0.48786208860667162889868109232339
-0.58877755582183710636456908105174
0.91980487112540498806367850193055
0.11342169480295745398468199027775
-0.84025141904840894291339736810187
1.91906360049263824407717038411647
-0.60426608493690070478265852216282
-0.33936429639186410645024238874612
2.02208274189993586489322296984028
-0.73415047250086140628866360202665
-0.61702616461599812947014243036392
-1.24108223018893237821203001658432
-1.35217394629397769101331050478620
1.77506152897160873749271559063345
0.18690924149666127140889670954493
0.41086321644477175052401207722141
W:
-0.06150464776980960057706226962182
-1.96246420513033981158912411046913
0.27162747245856161404375939127931
-1.13329345861393315786358471086714
-1.40011097553814822802564776793588
0.06190798643941610585050838722054
