mlp_weights
I:4
J:5
K:1
V:
0.12309839679707357262827827071305
-1.74278988720067284923231909488095
-0.38228074748583362740816937730415
-0.01156633242291342511531837544680
1.39461036996471521298701645719120
0.45279265373239974135088914408698
2.54094240924865566455537191359326
-1.43432977158323593513955529488157
-2.08458803909753065397580940043554
0.80319725078750991986709095726837
-0.22484649520195634786468019683525
-1.39318379566881200837258347746683
-0.09576548186628730530145503507811
-0.05389861458334634092270931660096
-1.35577413795412748953594928025268
-1.65922400000773162531686466536485
-1.80016083803217585845857229287503
-0.25510918150715755636781523207901
1.44496396113771918834345342474990
-0.51478320686566392261340752156684
0.87891317921527767342837478281581
1.87606970663862204773408848268446
-1.67509607176872665768030401522992
-0.66577557686259947189455488114618
-0.14652823039532178461819000858668
W:
-0.29357400870526001446236818992475
-0.61026131477433920302644310140749
-0.53617913786531590236705824281671
-1.35764020474519497838628012686968
0.56712150563851737583576095858007
-0.84632167111089662281386836184538
