mlp_weights
I:4
J:5
K:1
V:
-2.08776235853080827098438021494076
-0.44319257505847914346830407339439
-0.58965041594006417646767204132630
-0.97076307642347792192794031507219
0.69840935058478448294039253596566
-0.32699190003235095725031555957685
-2.01337078564859117690843959280755
-1.43090347737253131832346753071761
-1.61105811425950373738658072397811
0.46667074163083982485389356043015
-0.49517667001387249969823756146070
-2.08613596357887365329020212811884
-0.74979704452045181639618931512814
0.16898653020557599657713865326514
1.33746309491439352434838383487659
1.90191328765966538583143119467422
1.45119608576438841041067462356295
-0.76906673809484371595601714943768
-1.50229742415048295178792159276782
-0.30402630006288672293024433201936
-1.42825401738962631803531166951871
-0.23574698852325889908421174823161
0.29987979191831004577295516355662
-1.13545023070909123497074233455351
-0.52414199232873481815175864539924
W:
-2.85870105743089464311879055458121
-0.64905075965684200234306899801595
0.98044285322838031770942279763403
0.27287778413866625726313941413537
-0.84358653384794612950514647309319
-0.78844497565401649996630339956027
