mlp_weights
I:4
J:5
K:1
V:
-0.19002910417940704901340609467297
-0.42982166580953123924402348166041
-0.08464987956874958641151351912413
-1.43509352613997465120121432846645
-0.13259077024354765095282004949695
-1.89609348339483041456787759670988
-1.83952935519664673158501955185784
1.23561748123357073581018994445913
-0.76905263156369785271238015411654
1.99662353114038393364637613558443
1.14355284066563034350849648035364
-0.48239015056639650280700948314916
-0.22637206509658655551042727438471
-0.23165093728822805374534254951868
0.83604118593490261979184197116410
-0.06482790679035368985871912173025
0.00380758080804238785432858094282
-1.24985847704945962632905320788268
-1.50510072513835946317328762233956
0.44245758605144203112757850249182
-2.65028297551692793021516081353184
-0.13393300487417836297510120857623
-1.17812800249765814442071132361889
-0.44912400389227630226329779361549
0.56445373091202621917972237497452
W:
0.18024984422158388253087935026997
-1.07365133540668900025139009812847
1.07131735794500926317596167791635
-2.84095710910309628971504025685135
-3.88196652960887789163280103821307
0.11275588502492753240069589537597
