mlp_weights
I:4
J:5
K:1
V:
-1.62419814358534320142268825293286
-0.22513776584944145131572668105946
-1.26065265639950374598754478938645
-1.65904338303887088912347280711401
-0.44555884049979915806360963870247
1.56741856455583383755936210945947
2.25435616681560935248285204579588
0.00376005870899726035716525984753
-1.16690065456436142810048295359593
-1.81519995265863087752222782000899
-1.40931683216891112664370666607283
-0.43269847318596760255005051476473
0.37384690390619251809667389352398
0.44196174734481413759468182433920
-0.89309584920580309397308838015306
-0.05644999782632792451053660442994
-1.32622438586595148279911882127635
-0.05393930414301956188793951696425
0.16007369300783749754835127987462
-0.13466261804446136296498082174367
0.36846435893210605083680775351240
-0.81049826328727936353146787951118
-0.76374007309159064327275245886995
-1.75914848958760594577199753985042
-0.82063396059531257265007297974080
W:
-1.48716839551450763501350138540147
0.27040300293863556158058258915844
-0.66747451223625875460498946267762
-0.08082404506103488261992140451184
0.43214067085192842121443845826434
-0.89499298685793993168857696218765
