mlp_weights
I:4
J:5
K:1
V:
1.75417853428227599188460317236604
-0.18156180479956607332070461779949
-0.60799487053930612034946534549817
-1.51265732626311444342093182058306
-0.31720084387949687432239898043917
-0.20882868019727029995635803061305
1.58070497947888299883345553098479
-0.89607907078044723991894215942011
-0.02810517937387047027186781633645
0.58578024878326873103873140280484
-1.06256077000326820680697892385069
-0.67630286597981281726532643006067
-0.42934812577120157195409433370514
-0.74023647008302551064673480141209
2.00440061975019689910482156847138
-1.62592646304158816583651514520170
1.99495006708077693424741028138669
-0.05285930364239221912470156894415
2.68619419906011813736768090166152
1.07843557311088589223402323113987
-0.73269265579243447739088423986686
-2.98120875044478150783788805711083
-1.07303141194076578912586228398141
-0.38491612859060453377679777986486
1.44143342802325502560734094004147
W:
1.02583771281415803144909659749828
-0.23991958253152478874881126102991
-1.26742270632001541308397918328410
-0.41791742229580070011607517699304
-1.45477031502154541264815179602010
1.82447001093651062220146741310600
