mlp_weights
I:4
J:5
K:1
V:
-0.40527579341526037692844397497538
-1.26576725044134064113166004972300
1.01720955358474518526179508626228
-0.99701579468982071130511712908628
-0.55857203135677480076992651447654
-0.96053317292459206022670059610391
-1.64608362809066699483651063928846
-0.32676872125436984273250118349097
-0.85043448701955737245583577532670
-1.10759103362775812584573031926993
0.65367699853837735179951096142759
0.59295507281521731002271735633258
-2.00890403509276804783212355687283
1.46345457306484472148611075681401
-1.66130665788728348886138519446831
-1.97594486632577037710234435508028
0.30024844314750809282088539475808
0.91511258431624120657232879239018
-0.41967836702453742425689142692136
-0.77034293288226129980955647624796
1.52461526893392806947247208881890
0.86162937204995448947641989434487
-0.26337101059933831770365486590890
-1.16047017989677248017699184856610
0.56880718806767849304861783821252
W:
0.96780645031814005463388639327604
-1.84669540236533613608571613440290
-1.08614119186358459856478475558106
-0.95955988992363427936282960217795
0.72680991749318157868486878214753
-2.02609472955089087164992633915972
