mlp_weights
I:4
J:5
K:1
V:
-0.55908531851683840319111595817958
-0.17411904868177816019247927670222
-1.64792924457688427786195006774506
-0.10165348831409277974291427426579
2.36091256550065242691971434396692
-0.96689600971546618701779607363278
-0.91584626854651962624132011114853
-0.86998758932567021862070077986573
0.05986727348538692372592606716353
-0.94878626650015984722585926647298
-0.15779348995019537582606972137000
1.03961806930036471108280693442794
0.99138689061628149090665829135105
0.26007618800271048442596111271996
-2.54638818054018001291183281864505
-1.39700837739388461500311677809805
-0.83640026966801439556320474366657
-1.70357976023357715611439289205009
0.60706417964333603265458805253729
-1.58883969356422638519177326088538
-0.01036459315854990070882024610910
-1.64805274596606121662034638575278
-0.25137636345179670271932081959676
-0.28909937337174845817244772661070
0.87422389499031161186337612889474
W:
1.09707636209403625038305563066388
-1.38098682112485393602696603920776
-0.50054133225178953914280555181904
-1.08214926502805930397244082996622
-1.40462732977836091130541262828046
-0.23680139044827630545597685340908
