mlp_weights
I:4
J:5
K:1
V:
0.93220016428318197565516811664565
0.29147531698307771463873905304354
-2.16090487322657853752616574638523
-1.56106932177549051488085751770996
0.59390298346706216214840878819814
-0.43723632656258443196506391359435
-2.04744261472369171173113500117324
-1.69318409756686572009698465990368
0.19348336805961510731499686244206
-0.37250706886770257320051769056590
-1.45402165089655399654589018609840
-0.77421783732746940476232566652470
-1.14621982921735998672829737188295
1.58203694473946931964292161865160
-0.39093908560326057211042893868580
-1.90478886484279419377685371728148
-0.31503846638497212673257763526635
0.91909721705689262361005376078538
-1.88450900959907574616636338760145
0.69434710237641095176286398782395
0.05902146058800410849398687673784
-1.38092377950095923644369122484932
-0.73050901247442001640308717469452
-0.44131695927756076081038827396696
-0.00708794931537019834433266396445
W:
3.42039220554632139581485716917086
-0.79629656838861873069390640011989
-2.57997832956754136191079851414543
0.42422028765817731965626080636866
0.08765360785362079354410269615983
-1.54063919215907230153561613406055
