mlp_weights
I:4
J:5
K:1
V:
-0.52078176756382954515345318213804
0.82045292098930200364037546023610
0.78895373015070457967112815822475
-0.34994318119045897397256794647546
-1.58412229934512627238518689409830
0.41620708385782517746420694493281
-1.87793148460182557357711630174890
-0.75837717316174380055571191405761
0.19178453045569432422468025833950
2.28266245629143949003037050715648
-2.11298373536090666746645183593500
-0.60759856742739515311768627725542
-0.25717679274023219626599257026101
-0.38861488317284209603741373939556
-0.81552756234544920843632098694798
-0.02609727595709912528754159666278
-1.32339579257946349244434713909868
0.54348161166093911234042934665922
-0.65554276882563844441875744450954
-2.28340112982942766706173642887734
-1.09423645857849671791939272225136
0.57830769348918820149663133634022
-0.63726345610403756225537108548451
-0.47203240036130894585753026149177
-0.51506620686170112577428881195374
W:
-0.03980707101011488058261988953745
0.05584641407840622295832844201868
-1.58199460068901109899286439031130
-0.28378667152505143711493929004064
0.79140158355343470653053827845724
-0.23184670777170612865347720799036
