mlp_weights
I:4
J:5
K:1
V:
-1.05959003679649654827699123416096
-0.39827120828139817021451563050505
2.82189101708495071463289605162572
0.98422613979040629583749932862702
0.57048028512542781065519648109330
0.38443853195262578381630191870499
-0.65501862610684458143595065848785
-0.03081000465354745074253450809465
1.37166798219237229261580068850890
-0.40918663975234964569338558249001
2.01965252603148970322877175931353
-1.34035718740155429529181674297433
-0.22763407322770420893043308296910
2.04208827862145403386762154696044
-0.47224316911157904197438028859324
-0.13660500657270444047064472670172
-0.17327818578045511843654935546510
0.40711997376842035123445384670049
-0.76633144230146243991441679099808
-0.10499423880814440224185091210529
-0.25025655590084588952848321241618
-1.79888812220465044156014755571960
-0.24030501680840693490281978483836
-0.86771926676243149589851100245141
-0.96266135904922311983256122402963
W:
-0.94649252176376041933991700716433
1.18105560375122164984418304811697
0.80131540889643182445922775514191
-0.12922906516604645843493415213743
-1.15166797190478131795998706365936
0.90739489330471156947055533237290
