mlp_weights
I:4
J:5
K:1
V:
2.07900589877314256881390974740498
-0.42306463840832675415981611877214
1.04962660978919730681013788853306
-0.07445849318091905810756969685826
-0.37015789266014836877971561079903
-0.87372925169682968959961044674856
-0.63518531477467321533225685925572
-0.53930879952593291370988026756095
0.78302441139962408733765641954960
-0.24272964281371525729902316470543
1.52017934790172137837771515478380
0.94842637017583519831731564408983
0.16749564077527218097785066674987
-0.04236965653707167045460835197446
0.05000124409521061741301650727110
-2.06670606411533430701865654555149
-1.99711584206298087273978580924449
-2.92548351722421928755579756398220
-0.48264754467252840575142158741073
-0.16044020774928363648470508451283
-1.34163161317310786202483541273978
0.21771957585741447127603009903396
0.74904355015803647521721586599597
0.87009183814273727275434566763579
-0.14544058336646994988861081310461
W:
1.35457008534984790770749896182679
-1.26438863764671705069986273883842
-0.06026539683654331264195391781868
-0.92375131637253515837215900319279
-1.45884681502573965161673186230473
-1.74143603049469497534573747543618
