mlp_weights
I:4
J:5
K:1
V:
0.42373789920032378653047544503352
-1.81812559581281418807918726088246
-1.34133890047405657242052257061005
0.43725657445693499880690069403499
-1.13523088420819950883355886617210
0.06497992694693643933590010419721
-0.14512357721538562960184037820000
-0.25163140253480936747720875246159
-0.29280725575562172036114816364716
-2.08863568859001036415179441974033
0.57444749675487560836018019472249
1.43413411086052300369431122817332
-0.13233857300396556500032829717384
0.86258867917682335857421094260644
-0.55273250008208718586644181414158
-0.93052935975745243446510812646011
-0.12909732959592595813447246655414
-0.96218901198194539681196602032287
0.18761465106073477171477748015604
1.43315099387590816348847511108033
-0.89337734091512577272453654586570
0.56342908969615101977268523114617
-0.39082737815701212857888435792120
-1.65320556525723616481116096110782
-1.10772644375448692244390258565545
W:
-0.53293245175901848842414665341494
-0.40279163924689265208201049972558
0.44107646596825134110986255109310
-2.75900153642030465661605376226362
-0.63367767799885177382179790583905
0.94005068419672044299773006059695
