mlp_weights
I:4
J:5
K:1
V:
-0.76856024403734668482002234668471
-1.51157692419637235126117502659326
-1.70531765451400874056275824841578
-1.52279748313421725569583031756338
-1.26319241236017565377380833524512
-1.32366173523550578750018758000806
0.90574402923860175551595830256701
-0.61633854028286705339922946222941
0.13198800074507571755688672965334
-0.51254571146552718730049491568934
1.58794764430837509472382862441009
-0.58373818531973897805187334597576
-0.19310233529574744038015410296794
0.73349297441150895782158158908715
-1.03899578746480658608675184950698
0.21152779551698544513449462556309
-0.98796353965984273770573054207489
-0.25202117476879082325069703074405
0.49492272279551702274247304558230
-0.36413810781701938523724493279587
-1.15113459560704334272429605334764
0.50851332894313816535003525132197
-0.49527959696456042015810794509889
-0.16961557360868814714471852767019
2.09060150584771431425679111271165
W:
0.73595265488736327785801449863357
-2.29803739752752722580453337286599
-0.79584986944819269272244355306611
-0.34400811525691771253221418191970
-0.68091441787076623093355465243803
0.56137706517311825038518691144418
