mlp_weights
I:4
J:5
K:1
V:
-1.33492248000444213573700835695490
0.30333388983867892729762161252438
0.21267677462543146948981132027257
0.30827060776490383675607631630555
-0.09547402391601593485415122586346
0.46197004614112613385401573395939
-0.44868428916384228699598679668270
0.90759401062634925683170195043203
-0.65868109940432362225948281775345
-0.11322228751105678501431839322322
2.76020092476974321371585574524943
-1.56317233786381692972611290315399
-1.16663476377062913513782405061647
-1.46328381615427738360324383393163
-0.99791550224310621164391932325088
2.36889244898197004474127425055485
-0.38727100856443313903199054948345
0.33617216520158654802230557834264
-1.11352005447621116296375021192944
-1.59277926232121913585615402553231
-0.17838885850465213689375332251075
-1.15129146786406466596019981807331
-0.15450605698420863398645508368645
2.29867510307925915213900225353427
-0.04756198841439412960951926834241
W:
-2.05948483365248113940992880088743
-0.36731820418284272244946464525128
-0.76755357649506084083412815743941
0.63129339518712446199799614987569
-0.03412520002071139924026965672965
-0.52574373455664469290127271960955
