mlp_weights
I:4
J:5
K:1
V:
-0.99904679997198064800301153809414
0.20835265081285314625603177773883
-0.53195795058531358812103917443892
-2.71831028220404125050890797865577
0.53000824389339284969935306435218
0.65337078336888976259899664000841
1.49522378016471302331069637148175
-1.41805833459815233688061653083423
0.24718962240276806663352715531801
-0.61210790750464671994279797218041
-0.86987994134729573758590959187131
-1.14705569869403212202030317712342
0.31030062063343955003347218735144
-0.92890374131342523522647525169305
-2.20312660212259991965311201056466
-0.40677641871152009356293888231448
-0.05336327598687459761173101924214
-1.01543170229458867837024627078790
-0.61195132434186738645820469173486
-3.16603496170638942786013103614096
-0.94766985499262978986934058411862
0.38488150826715483709961063141236
-0.75057014786016496010745413514087
0.74402016734795151098325050043059
-1.37901302409598436327087256358936
W:
-2.18350092381778804195846532820724
0.13429422337163809952897963739815
-0.77428952670808848246508659940446
0.65230388567340313876741220155964
-1.93280403548737900187859395373380
-0.20661508797585848018485421562218
