mlp_weights
I:4
J:5
K:1
V:
1.38920792770640511015756146662170
-0.84576213852717641028533535063616
-0.86479215079413773725747205389780
-0.77654509697704932058570648223395
0.15725585808479422555983262554946
-1.56977121173654565744470801291754
0.87846000720616124191053586400812
0.19576319808870160099623092264665
-1.24700069140206259987735393224284
-0.55243477169780175195512583741220
-0.71535028206197337485860998640419
-1.20520604621466431716214628977468
-1.05912473569731102607249795255484
-0.53191681973138416061885891394923
0.10732195592598980926624108178657
-0.55169224642366898603285108038108
-1.06473379841688009506128764769528
-0.32657222094838417314477396757866
-0.03168006938711141057263276366029
-0.88388026588770485236778995385976
0.58007893843486713070234372935374
0.74068839881915538025936029953300
-1.92758281325355618207595398416743
-1.95743987539047714641071706864750
0.47432563953573186887879842288385
W:
2.25751032351946534504349983762950
-1.46625313947845836715089262725087
-0.91897016148776955457577741981368
-1.38814899443997097350234071200248
-0.12072203871253216200809532665517
-0.90830770545054162479203796465299
