mlp_weights
I:4
J:5
K:1
V:
0.32618272725910402165538926055888
-0.09095157437956344348428672219598
-2.35500517908856510373993842222262
-0.80774477049914850113054853864014
2.42893151496232873043368272192311
2.11825823862439577283112157601863
-1.09933713312768666092722469329601
-1.87029149507813463593208780366695
0.48371982105239308413757726157201
0.02774619953713919340287930026534
-0.26700191235443859749665307390387
-1.15886735661491502291653432621388
-1.62917347187356797988400103349704
0.34185777281234663860232103615999
0.21674843053817016702566888852743
-1.16619630064909651778748411743436
-0.23416709315243625089131285221811
-1.69605559056821197927433786389884
-0.32126741506163447592570037159021
1.92117917320307984851979199447669
-2.30262118889920586184416606556624
-0.09798129992846607572154482568294
-2.07981863579549930420853343093768
-2.33090988566653090074964893574361
-0.55793401062983549731910670743673
W:
0.10311701963561087369569690963544
-0.78307444778771584381615866732318
1.03522135521868019480962175293826
-0.32060247894579679828197527058364
-2.89200602193525746486102434573695
-0.08207659880719123113301805005904
