mlp_weights
I:4
J:5
K:1
V:
-0.46954997795671904459169354595360
-0.50815251530177074634764267102582
-1.94708212174700845409347493841778
-0.16524249221172840340621235100116
-1.35882310219893454039663538424065
0.57310498503014595250704132922692
-0.53809230964220478021786675526528
-0.33799245247675535619436004708405
0.50445200128852984988725438597612
-1.48162262875612182888573897798778
-1.71538752875061861757899350777734
0.58765916299793086174929612752749
-0.70965716740684103847058850078611
0.64418970123110086412054897664348
-1.52807022620679688884592906106263
-1.11230393579079289700928256934276
-0.59787014411547945158531547349412
-0.51636070818201962318028108711587
-0.49921496558859790315665350135532
0.70963211906400580630815966287628
-1.98882329387080747373772737773834
1.91946419041755622636458156193839
0.16769390635354797236544754923671
0.81764981698562122502949023328256
-0.69333787061817930830187606261461
W:
-1.07339582800287991481980043317890
1.54212185168219395592359433067031
-0.77887522356379323973385453427909
-1.74126832319630775458563221036457
0.13701230253622620480769001005683
-1.17048424111413784665103321458446
