mlp_weights
I:4
J:5
K:1
V:
-2.24112441932723793769355324911885
-0.03164982109782629726701941308420
0.92813597411960435668021318633691
1.58212514863197961645369105099235
-0.93785678497930102803792351551238
0.20519161466668567328497374546714
-1.38363979325055108660080804838799
-0.65150344709314345070794161074446
-1.08857371058681384745625564391958
0.40550427125921040261147254568641
-1.63229575464694498521112109301612
1.75322448185179924351473346177954
-1.95465085117038461781646674353397
1.27272216267836468794882875954499
-0.99624477349066831166624069737736
-1.36357645016621820133195797097869
-0.96694393279374968308559346041875
-0.38477467806173598630081755800347
0.06708435821348703032018789826907
-0.01643381040830706879551925680971
-0.93107474752627417124983821850037
-0.57463172464848943921111867894069
2.01785569433651090776038472540677
-0.58541292902365127392982913079322
0.78229992219529009833678401264478
W:
-0.50928829556849586346345404308522
1.21126299184947505693799030268565
-0.34468511696728659776667313963117
-1.95758063929683112647239795478527
-0.92583654266000414700954479485517
0.21195430369133369530310062600620
