mlp_weights
I:4
J:5
K:1
V:
-0.79450256246787709368817331778700
-0.82705113566982524364590290133492
-0.04061541085876414769462172671410
0.47152259829946618907570154988207
-1.87251830758757509265421958843945
-1.31310241767471547191803438181523
-1.69570257191842443944551632739604
-0.40254684023034609241520342948206
0.39947688005905768182657311626826
-0.09268509431923988017842930275947
-1.92298677383817784303232656384353
0.08726725296955673005783182816231
1.40488662286642274068526603514329
0.13534487397413119680322779458947
-0.93406951245519576065845512857777
-1.03118693302752273410760608385317
1.52534482461887255233534688159125
3.21516139912864185035346054064576
-1.26757718606508351655293154180981
-1.93572737048017740058014624082716
0.66929094889320284167411045928020
-1.23341945672488106922060069337022
-0.00009136302679697144712989143045
-1.70625452100455454740313143702224
0.15000547512763209856423429755523
W:
-1.72054456932778343514200969366357
-0.99973112448946643837643932783976
0.27165616737125919399886697647162
0.21367223709123342456628336094582
-0.28730406805900099431738681232673
-0.31562945086194915678134975678404
