mlp_weights
I:4
J:5
K:1
V:
-0.93956185407014125576807828110759
-0.42374544606685599079654025445052
0.87114452692897015317896602937253
-0.34779193466837249326673031646351
-0.13985411559166624484440433207055
-0.25697702305350139662110109384230
0.15717140908133114818312492388941
-0.07364706198295406514020555732714
-0.83449923631081235342321633652318
-0.05455562126784330168050018983195
-3.31731854093673872441172534308862
0.91384021464192988215557988951332
-1.32698137794821913182374828465981
-0.57407235178047211210383693469339
0.51252163048219867569343932700576
1.44665948221423734665336269245017
-0.83784333351773487841285259491997
-1.94050521933087272152818059112178
-0.60521366188645364658782455080654
-0.22929995491726085088401987377438
-1.43291092707626299684875448292587
-0.43226477996205525666795210781856
-1.85189453835417272564711765880929
0.47595115837010071313528669634252
0.86912836235921786531832822220167
W:
1.79986444792229938194338956236606
-0.05824406019223246633309543085488
-0.20155926916198685372449972419417
-0.69749462317851551595992987131467
-3.56555990448686488392127102997620
0.24653027359126822304347115277778
