mlp_weights
I:4
J:5
K:1
V:
-1.23443001786800632402218980132602
-1.39185765406441896985256789776031
1.25460839044190741731199523201212
-2.57512351211444201481981508550234
-0.15183205360167331687826219877024
-1.21637280857509666454063790297369
-0.68998569858816272137858049973147
0.65132938184481292687166842370061
0.45879842479105359398516839064541
-0.44780196567436142407458987690916
0.91604792948928270845954102696851
-0.53551165564256542062082644406473
-0.24511741224320776622036532899074
1.55553610663594144014609810255934
-1.02242424241096840908937792846700
0.51252007048775716224753296046401
-0.98992122247670377710448974539759
-0.14676519996205839024838724071742
-0.02692662446694220335086100703847
0.39175274140567528657896900767810
-0.31560757223940455462596332836256
0.31656084292401842628095209875028
1.93680374438437441497740110207815
-1.61490458944688941578249341546325
0.49310949626220629271600159881928
W:
-0.59182472137569042125448959268397
-1.31893448342167207698594211251475
1.27437332141690817799428714351961
-0.37175761840442456129807169418200
-0.73640699660250996672061774006579
-0.45454436286605304218255696468987
