mlp_weights
I:4
J:5
K:1
V:
0.92176328224869197303092960282811
-0.54460689527916572583166043841629
0.32095235468870769723892522051756
-0.94721566815289637286667812077212
1.81980133207022465313684733700939
-2.00912419689487942164873857109342
0.22445262295812892783253289508139
-0.32617232288611935908662076144537
0.91426551146519741131157843483379
-2.66927379988768187502046203007922
-1.48216494772239704147409611323383
-0.46946532465575030457216598733794
2.53173260578875591875203099334612
-1.53660505738866093317085415037582
0.35235552976797690494237258462817
-1.03048281097737026712479746493045
0.59855080441510499777990617076284
1.42443542037589310211842530407012
1.69325935375952307815339281660272
0.33361368763168924855833097353752
-0.30234017774996302385659419087460
-0.04311394998322369553900301752947
-0.25061709402544768421350340759091
-0.62711189470681782953676020042622
-0.94327592315643449261131081584608
W:
-0.79012437752372732813199718293617
-1.43531391187816703691737529879902
-1.67373630008989726647428142314311
-0.18615171383167605778652387016336
-0.55776583997470641218541231864947
-0.33210976480685305833873144365498
