mlp_weights
I:4
J:5
K:1
V:
-1.05457135846610583485016832128167
0.32610104782355020525130839814665
0.25565860454177041782841683925653
1.00872679964965872301263516419567
-0.07195451226069624062198215597164
-1.55069640254666629708424352429574
0.40627535426823463415857418112864
-0.41123215837689736096294268463680
-0.62328049668328899812763665977400
-1.34672440915177893394627517409390
-0.43037637375056719823973594429845
-0.12480822874053880411349126688947
0.58243906572876125160576066264184
-1.03357797187319944143268912739586
-1.67533950259450614694856085407082
-0.33334762544366924874594815264572
0.64584099511042147856443307318841
1.54673600408208966605627665558131
-2.22458314744308882637824353878386
0.36389097188362440338238457115949
-2.47012409125277798693787190131843
-0.34592350171151381443834793572023
-0.45643007993545758882447671567206
0.28484607497525188390952166628267
1.05767687306533297864064024906838
W:
0.28112940390482005215133654019155
-0.65622532307033820675457036486478
-0.43860601800207416056665010728466
-2.13732300269571373618759935197886
-1.50641362924896249353423627326265
-0.77934616031178594042216900561471
