mlp_weights
I:4
J:5
K:1
V:
-0.15900453386392560117812422504358
-0.73777079233746456488063358847285
0.37223192226525009251858477909991
-0.73821503580685488010715289419750
-0.72090957103943087425079738750355
0.78398074410135076828254341307911
2.63306204635821439197229665296618
-1.63268074022660081290325706504518
1.16490435117928425867717123765033
-3.11477832576721302970668148191180
-1.51352721105746002017156115471153
0.18256918307375757937194293845096
-0.76976670495886012623998340131948
-0.16057767507052833622083198861219
-0.08274016500366035420377386344626
-2.74659602469127683832539332797751
-0.92684414129361825107622507857741
-1.10124822857119597507846719963709
-1.46463384479267411109049135120586
-0.58812575646607823109945911710383
0.92973204543719378811772457993357
-0.76864397086728175612080349310418
-0.17646897230813807233573697885731
0.20441810883759989336816431659827
1.40436280152349635130804017535411
W:
0.13811354438537881694770703688846
0.59278805937087708510802031014464
-2.67443065094345167054257217387203
-0.84232254845117382480168544134358
0.71669893515047500276438086075359
-0.79521501792570337130428015370853
