mlp_weights
I:4
J:5
K:1
V:
-2.41509452996014850612027657916769
-1.05370277062617034857794351410121
0.01468932950605893184015116048613
0.82024136414196591182701467914740
0.03523268629943060448184155575291
-0.72401471659582061768389849021332
-0.74683120217417475750210087426240
-0.56211715547195395537016793241492
-0.03629944471592122523517787158198
1.08445717304292155169775924150599
0.76834693761498251696195893600816
1.22509843715042454626029666542308
-0.86232610784002305948092725884635
-1.43616254797450570990235974022653
-0.67441837403872939571414235615521
-1.75992767191121224357175378827378
1.10724939266934541137743508443236
-0.76188352800557679334048089003772
-1.17269216077642202122888193116523
-0.44860154167555377213716383266728
-0.96324811835527923697952701331815
-1.72094045530016925837912822316866
-1.70417269028228335336905274743913
0.57412816081278639224194648704724
-0.30804753203022494645324513840023
W:
-0.41169070557141740351880798698403
-0.03576717895655331935778065144405
0.02929254151850223253372718090759
-0.95600028909383616415595952275908
-1.79711129885263032335274147044402
-1.37783863019634544855307467514649
