mlp_weights
I:4
J:5
K:1
V:
-2.46756957354165473716989254171494
1.97273376388123722335876664146781
-0.22248350309933756507874136332248
-0.84597675256179283298507698418689
1.38423609398661962011090054147644
-2.46857336468190258216282018111087
-0.44007986118695269217582222154306
0.90262143290361618319650460762205
1.42470410829400639940445216780063
-0.92740531022019534468370238755597
-0.61053189065736990226440639162320
-1.50651482344607279273418498632964
-0.65570928510146764267574326368049
-0.00155087879461156263882770645068
-0.54343906080261106250617331170361
0.82141533478448980343245011681574
0.28968746097522268811985668435227
-0.09161612352464371111793184354610
2.99805985107081696128261683043092
-0.63851231849940770501916631474160
-0.65212712520434523710832763754297
0.80562520610741528148679435616941
-0.94869026772929021529279225433129
-1.39232959900029529265452765685041
-0.87878725120150402716490134480409
W:
-1.53280889767603545337237846979406
-0.33529112348049466829635889553174
-0.91201586705983417324716810981045
1.18079165863109381007234333083034
0.84813238051959438656979273218894
0.47252851353461594596794270728424
