mlp_weights
I:4
J:5
K:1
V:
1.56842141793424683093860494409455
-0.27022933526533682302428474031331
-0.29436783614545097842452037184557
-0.89767179772627780920402074116282
-0.69504716862184101611177311497158
0.62911513288556730749689904769184
0.00397946894151842561759835348312
-0.22881374005137050664515641074104
1.18224058667576326087100824224763
-0.59771610496799221223795939295087
1.22294921101504172611385001800954
-1.09792073414818713850138465204509
-0.98404140209710999620540405885549
-0.87580753178394887825675141357351
1.52927446960220247973438745248131
0.02196339629144378191583086845640
-0.47035976303123050445975650291075
-1.80228239328929396023681874794420
-0.23809885515075446260624403294059
-0.06815098628904515953852438769900
-2.60837255681798163564621972909663
0.04022153876346698520016786915221
-0.69997150704293964462721078234608
-0.92482987509950276283632319973549
0.11720246944578094350219998887042
W:
0.77410404533808052640608821093338
-0.60593836068153028584504227183061
0.84950840321441367652965936940745
-1.22679922263266161230887973943027
-0.90607112724105742795899232078227
-1.71813981043073371601792587171076
