mlp_weights
I:4
J:5
K:1
V:
1.75213665399413587309140893921722
-0.60748519571282477702567348387674
-0.02639858114679578815486848952787
0.24791736232683289631317791190668
-0.54365574305238184571464898908744
-0.59047148107985092391203352235607
0.35699304923471303352400241237774
-1.42258753190928621812361143383896
0.91688815043913973745759449229809
-1.75188285029726342756362100772094
-0.54524934804553504275048680938198
-0.20062819444703955396036576530605
1.74366602474865661775993430637754
-0.49743009331840637443633568182122
0.70760164311687645533055501800845
-2.79137792932142936308537173317745
-0.59011596304149915859227348846616
-0.36293242459723146220440526121820
0.14839331064733013443301956613141
1.62983153833235649976529657578794
-0.29368615295504202356013934149814
1.33687340465989135118718422745587
-0.08902933070644225566070417698938
1.13933413442030939677351852878928
-0.32437408736753187143975196704559
W:
-0.53023671281128903487456227594521
-1.58548815067872839179585753299762
-0.04645772225386687881432123958803
-1.24856698728996540204150278441375
-0.78613453979302705398879425047198
-1.39529631973496948127433370245853
