mlp_weights
I:4
J:5
K:1
V:
0.28637652051114459439418169495184
-0.74462351503974832933607785889762
-0.23727784001628196564048778327560
-0.07441384717269101944925324687574
-0.21280125849441683394402957674174
-0.37090621783177218917515460816503
1.22008460500459148256879871041747
-0.26777613835884200854664527469140
1.28254439642450046576982458645944
0.49258997668198833963515426148660
-1.88902270352958612242844083084492
-2.49608029380161333676824142457917
-0.68113873101671307264126653535641
-1.05982173868524509607880190742435
-0.63327029589688055288831947109429
-1.50284843516008881358914095471846
0.08020246526428369271410900864794
0.84681130928837688998100929893553
-0.82905873189476275708642560857697
-0.04864439266719186583110001720343
0.00567761163664524948213596644564
1.18939237600262748273394208808895
0.53220894138935570527593199585681
-1.66657974646548634467535521253012
-0.35187353839725210580269276761101
W:
-0.56907151031203739854902323713759
-1.71518021975308965210160749848001
1.05308144877788634197202100040158
-1.00957008418865967769306735135615
0.45289277843740122220239641137596
-0.61124628926852153654181165620685
