mlp_weights
I:4
J:5
K:1
V:
-0.23263525584754835007217366182886
-0.78954049030961248600846147382981
0.64167300745950606177814279362792
-1.44416939862554705165109680820024
0.28053495711497505871179214409494
-0.50984124666352259591661777449190
2.53170319643096197737008878902998
-0.63133997234573868695406417828053
-0.88596054467237295160231269619544
-0.75525155064976101648710482550086
-1.25147752533312672795773323741741
-0.18468384552038918933192235272145
-0.40393862724529272512086208735127
-1.60034484569172574808249009947758
-1.06118971826184926854352852387819
-1.50803538971138118007786488306010
-0.15028583530050387828680413804250
-0.75437045199284957774921167583670
0.12357702469987028037756715548312
0.61641281203687292578052847602521
-0.51783378078752007045437721899361
0.93773214750220534874358691013185
1.61466891585863381308740827080328
-1.72321319855873600346285456907935
-1.08594191761377634186658269754844
W:
1.37741311301919711063135309814243
0.92409156292274807764641764151747
-1.44324718624084358253867321764119
-1.46037774180366475285097749292618
-0.55407171284941858502293143828865
-1.59973522961296321653890117886476
