mlp_weights
I:4
J:5
K:1
V:
0.74531676556182113735360417194897
-0.24367182796267211619678505485354
-0.33994892035145096720327728689881
-0.23472665621649546618954218502040
0.22008237151825510435898536343302
-1.96859476569730684758496863651089
-0.62665664160809286808984097660868
-0.95126102208392759873589739072486
-0.64017038824043503986160885688150
0.27477971607608753235041376683512
-0.14132333965272822484671166876069
-0.00085750130451028860889550742286
0.06609377687556351743669580400820
-0.78606621104129525967607605707599
-0.29280342221141231195957743693725
-0.78931839101867184993466253217775
-2.80736975389278287096317399118561
2.88719019644239072164282333687879
1.10615193469670858306130867276806
-0.24325162190560054020771474370122
0.34941806117676005305483499796537
-0.59553210825270497252859058789909
1.42485099334536124970895798469428
-0.80556032045802783425614279622096
-0.19513541626872582535057176755799
W:
0.39287520248915913656517773233645
-1.44270790906893031646518466004636
0.57770314441877301803174304950517
-0.02324752173800847393492219339350
1.53444908949653813223790166375693
-0.04992881352461001065456969172374
