mlp_weights
I:4
J:5
K:1
V:
-1.54489798585160187371911888476461
-1.66351837682092895676078114775009
-0.08808028450800131636810874624643
1.18613202420316921070764237811090
-0.26425855385371754824319623367046
-0.08278504087265703414999507003813
0.85612114736857614083476164523745
-0.04087586019452728314238498796840
-0.95368949443298400847623952358845
-0.53343834600814798996282206644537
-3.59018375860153593492896106909029
-0.22097859902055477787641279974196
-0.36689261167471787228322455121088
-0.94251553816227751081413543943199
0.17866964299580731512229192503582
0.81494085939769989046510545449564
-0.15080787776920778764377928382601
-0.37191717920146699638550558120187
-1.10372188897602541146625299006701
-0.48246156195330325289205575245433
0.73570660493889572517645092375460
0.90097823031367396673374514648458
-1.19548130625834581053368310676888
0.82568843021353266475870213980670
-0.86721687152448156954420710462728
W:
-0.45859225869829334243377161328681
0.72615119557521723425708159993519
-2.45390178736946173998489939549472
0.63951811715140005620838792310678
1.86986061520212243358685100247385
0.53277744107434066300754693656927
