mlp_weights
I:4
J:5
K:1
V:
0.16936332392066416607789847148524
0.36946674358664638448956907268439
-0.56998447351242587100017544798902
0.06796921052286200581882269489142
-1.18783658868704367073121375142364
1.31199145081954759994857795390999
0.48499886465812114266782373306341
-1.12458976658530374059807854791870
-1.96825626323966118569330774334958
1.20365504818561963595868746779161
-1.73519639578150197678496624575928
-0.47671433435740745432340759180079
-2.14163471827098206290429516229779
-0.40981084013843699365153838698461
-0.28655047181169002179501603677636
2.55083253261728160055099579039961
2.19196024976307501930250509758480
0.86232077603772783191971029737033
-1.42364756254565461013328331318917
-0.87645426542827553628711712008226
-0.46557468790871808783649044016784
-0.60422990912723006928786162461620
-0.00819174290970503538034108714783
-0.29526896363911181442318820700166
-0.67350949652148839330578766748658
W:
1.53157533031891812669300634297542
2.56468903556495098072787186538335
-1.58764855568352447612312516866950
-1.25487444208335530149156511470210
-0.82708821158218681635077018654556
-1.62652607987015573876021790056257
