mlp_weights
I:4
J:5
K:1
V:
-1.02320928793561405356626892171334
0.82869124704393026803472821484320
-0.84711298590750272463623105068109
-0.34513812590373443844882217490522
-0.59972185112090237169013562379405
-0.69702482371147023165747214079602
0.69355514151614017226421537998249
-0.30076064614295794363840741425520
1.61652709486579482245360850356519
-0.19160734322951644692523132107453
-1.76821195553327759064643487363355
-0.62872089279726295352190845733276
-1.23113966782915063014058887347346
-0.08252060437631907052757895826289
0.67527722722528926713181363084004
-0.68611171166824935774286586820381
-0.46339728044733730083493128404371
0.71804481183094293061941471023601
-1.12801632846723243197573083307361
0.24043930446685257695804693867103
-1.02670168214378620952231813134858
-0.47624524315101501859004429206834
-1.88906997703249945885772831388749
0.73099353270684452876793102404918
0.35072844106610306935678522677335
W:
-2.20360936571446597298518099705689
0.11536866474944176830241815423506
-1.03104956346568732428181647264864
-1.30480871070977522130363013275201
-0.55295654997049670242859065183438
-1.20910378286968467342887834092835
