mlp_weights
I:4
J:5
K:1
V:
-2.36989068479780939924239646643400
-0.17894509045337569919098541504354
0.43135564046020596906672039949626
-0.15468228801788203030653789937787
1.26468983495980658027235676854616
0.79391771540264011175480618476286
-0.30798882866508797695459520582517
-1.80674297357416491216497433924815
1.18224934551096749757448378659319
3.03115587700875277477052804897539
-0.09044933947769381865633420147788
-0.33350834717494187708908270906250
-1.54595188383613546534434135537595
-0.17629391850507342143217215379991
-0.17096946630977033487752692053618
-0.78662774967243598300825624392019
-0.36946949563944397887382820044877
-0.42715730229878789980801911951858
-0.08792527925650972520088544115424
2.34440943395432732643257622839883
-0.40073136844627577080046876289998
-0.99158287855605764526956136251101
-1.61430856429950497776815154793439
-0.14950242291688611850908330325183
-0.37844115611390383158152417308884
W:
-2.37270975631777991665671834198292
-1.02414043982363001106250521843322
-1.55212955207009462021972012735205
0.23376653831422417040286632072821
0.64767506939237851071311524719931
1.17872071643975018240269037050894
