mlp_weights
I:4
J:5
K:1
V:
-0.03138736935514650772116596044725
0.24743692501892342039404582010320
0.65550924019357681427067063850700
1.14814464149336203924178789748112
1.37686136313279372522799803846283
0.86334751280879229451414857976488
0.64276220442433928958791966579156
-1.05639863132175459980999221443199
-0.44377046690345389734488890098874
-0.13415175090775738331316802032234
-0.54367592840251399710638224860304
0.49741873172592948604275875368330
-0.69083313991325345782001932093408
1.84262397068591665671988266694825
-0.72300152130035488795556375407614
-3.79474781429649610231535916682333
-0.10891614416350892113882764533628
1.58824680172493115648535422224086
-0.05760025545814842495850882642117
-0.73062375317151062592557764219237
-1.73288713719562759152381659077946
0.08284490950548425991506462651159
-0.01120972269410282218249363950235
-0.38922947724867162921924546026275
-0.34745330582791711382384391981759
W:
-0.38030710105260451259212572949764
1.14928941681284912945670839690138
-0.26940386064448473835142294774414
-0.94254950939454051894728081606445
-1.68684699804292570490815705852583
-0.64202694140350602403088942082832
