mlp_weights
I:4
J:5
K:1
V:
-0.77225369790863040986295118273119
-0.16208184201250541711658570420695
1.10635377879432716952123882947490
-0.63143459948473856790940317296190
-0.93545493379922650678537365820375
-0.50305294189285187922422437623027
-1.19444378806384743363366851554019
-1.52774182953601478374139333027415
0.91265482523182084317880935486755
0.65032727515181587563120046979748
-1.83293787400314989177729785296833
0.14158732527886772056824327137292
0.78194547758835497575091721955687
-0.84930573570063483401781923021190
-0.20925055133885481217781432405900
-1.35434911619780717906280642637284
-0.48753365546293259136234610195970
0.51709682274297130710749570425833
-1.34460255473319323371583777770866
0.03430759058134176531229542206347
-1.39427857258622323044505719735753
-1.03455578148468108068414039735217
1.15037757540003227063607482705265
-0.58506086552575320425262361823115
-0.39080598234256436196432105134591
W:
0.78589567590951814324284896429162
0.09395500008889091925201597632622
-2.43432331197423756918851722730324
0.80317069833938647960280832194258
-0.42664606926004522424733522711904
-0.00324747293939584014133004075120
