mlp_weights
I:4
J:5
K:1
V:
-0.94252701836211727481895650271326
-0.67575599166068656131756142713130
-0.51290722340460848105436753030517
-1.88903040385818954405294789467007
-0.20923052858662438691084162201150
1.10510433081349335182608228933532
0.34549021865626955429817712683871
0.45978985877697409190290045444272
1.59429187860451415659213125763927
0.32998181473238419325610948362737
-1.50707463721457224359312476735795
-2.46486480608306024464582151267678
2.87131247005936529603786766529083
1.60869500703737733360298989282455
1.22524434333707343824926283559762
-1.10346181094921735876823731814511
-0.43742562438311083372610710284789
-0.96405359192864581441284599350183
-0.33364376925396577178162260679528
-0.64047332412741453389060097833863
-0.41953977018514732044707216118695
-1.01904190766569047177370066492585
-1.51600224509580505660721883032238
-0.62665581651165636056788343921653
-0.03363058736955466115903234936013
W:
-1.46815767470498315105942310765386
0.38433165731448121205104939690500
-0.42801914723604161938652623575763
-1.27454050453235878670454894745490
1.50629899170506598160557132359827
-0.79734814399839615273180015719845
