mlp_weights
I:4
J:5
K:1
V:
-0.31172575418138609437690433878743
-0.55008671424950095207861977542052
-1.77656354190659282465958312968723
-2.03832108131901978964606314548291
2.35849452946185378365839824255090
-0.40928724580700381885378646984464
-1.12310360116379093220473350811517
0.20753389900051033567507374755223
1.45985672895759899247991597803775
-0.74433287385926683032977280163323
-1.32500220506333721282032911403803
-0.69847759914544638171207679988584
-0.07341273407763321268149070419895
-1.16918775218515991198842129961122
-1.45057623407704983087285199871985
1.30449591266854292292975969758118
-1.05516630557937540757507122179959
-1.49154914420714090894648506946396
-0.39506603376320115206254968143185
-0.38794655181741166671827159007080
1.62774947379231083033346294541843
-2.24755752524978147377510140358936
-2.02375609679077861358109657885507
1.22249006794440040479798881278839
-0.12837871829307184734503266554384
W:
-0.80448223127436202517515084764455
0.40175232889652662260360216350819
0.99504211489837368631583558453713
0.71426247179702317957605828269152
0.38164782238444017181677736516576
-1.27708184929896706449881094158627
