mlp_weights
I:4
J:5
K:1
V:
0.16933799621562056758605763207015
-1.80575463404796177080413599469466
1.87580487360445413713705420377664
-1.35062679691766773792949152266374
-0.35578097095772787117340385520947
-1.58153821358385426876225210435223
-0.68334350570796908996840102190617
-0.25862107402206629958030248417344
0.05553909543120564423768215078780
-0.51349545996590117979962997196708
0.51336696156066174978604976786301
-0.57111439579401612753883910045261
-0.82621417256296036946139338397188
0.71731745285957759783457277080743
-0.36792852302789458285303680895595
-1.21280624046780438618498010328040
0.06217862314900715614562898281292
-0.55330712131954873367334357681102
1.45106656123866883945083827711642
-0.18356205837825040338984194931982
-1.17221303932708731387890566111309
0.54990920983911739661209594487445
0.24464542598526664574087874370889
-0.81945454552609608978031019432819
-0.05140851290948639240596662602911
W:
-0.15519087459341410206725697662478
-1.48642829555273725539166207454400
0.97831686450304644608877424616367
-1.98043129715706589522028480132576
-0.40079581390766377824164123921946
0.91078295935986586240318274576566
