mlp_weights
I:4
J:5
K:1
V:
0.05876845078033372804515721554708
-0.41069545491332148934304768772563
-0.75193172714995126781900580681395
0.63324535029847583977868907822995
-1.19961731469675014771780752198538
-0.41132260140203524834134896082105
0.79154550512324928224217046590638
-1.14418594267233908468028857896570
-0.33421338086622132124148265575059
-1.41461108426229897894188525242498
1.49602872227088168344266705389600
-0.35327107504765337120389290248568
-0.06398430478256403319825551534450
0.44604703844052134842357304478355
0.00683115245434600532048463605861
-1.23412300081199344248261695611291
-2.76786277596550123192287173878867
-1.08603276241095469956121633003931
1.22080432731908850030322355451062
-0.69549473365507474831304079998517
-0.25108139877084501012660666674492
0.91506826603933599795226427886519
-0.75697631217378680279495029026293
0.00814811835649458665598032780508
1.26719664967002376698701482382603
W:
-0.55672007078643603872336598215043
-1.83388022074256706872574795852415
1.73371501745603340260970526287565
-0.96254676343045297848277641605819
-0.15684590162079253827798197562515
-1.38074211155275339280024127219804
