mlp_weights
I:4
J:5
K:1
V:
-2.24941169849180688800061034271494
-0.86424552882856775504194501991151
-0.86135777883092756734839667842607
1.25612888977811332225087426195387
-0.93160746484117884502751394393272
-1.16413773540038412157571201532846
-0.69045827742439513929895156252314
0.44642956809656308969636029360117
-0.33436231777926206376605477998964
-1.03504677060539873600930604879977
0.41640580803389282138482485606801
0.44675261368741958634132060979027
-0.87378300112371609653649784377194
-1.10905855349480719773680448270170
-0.23715616090237162660869785213436
0.40748707904871894758258576985099
-1.42886484382082845634442946902709
0.08170901423595977597358341881773
-0.28196091131164724430391288478859
-0.67799802661897745625907418798306
0.01040972330136250012522225460998
0.26208265959540866241184176033130
-1.22067681674150430026770663971547
0.48454209103419809689938801966491
2.08995295797967672868367117189337
W:
-1.68098684257325992064124875469133
-1.17552051845426208664946443605004
-0.86952141442051411601710242393892
0.74674080442920631739411874150392
-0.51757773476801083312182072404539
-0.10774810605201906588135329911893
