mlp_weights
I:4
J:5
K:1
V:
-0.97248108715916359301445481833071
-2.02527567148594123125349142355844
1.80242342290845036778534904442495
2.06460265916291785259772950666957
-1.60947969979601523959900077898055
-1.38801888475249857179960599751212
-0.61994979412865858225956117166788
-1.12461640940307328051517288258765
-1.05677639213176854937614734808449
-0.44218440195865021946630690763413
-0.05463542729178030854519931835966
1.09814257851131813481515564490110
0.30336627551952399794998882498476
-0.47823016327122636059954174925224
1.14740723381983911188797264912864
-1.01707107969701082694768956571352
0.10713695485912329286026789532116
0.12898070777031198086426400095661
-1.49911095776196545692471318034222
-0.21732090603940507067548537634138
-0.09216332249330334847048362689748
0.77148907836196978227150111706578
0.12390513479379819394843309510179
0.05199680939204302798639645288858
1.12238287845893003336072979436722
W:
-2.21994832618617188302323484094813
-0.21288829231461564583938184114231
-1.72804453927662748924376501236111
-0.77077600560521408734615533830947
-0.65510900880733813345102589664748
-0.66799161291762809700145453462028
