mlp_weights
I:4
J:5
K:1
V:
-0.86497605093791696262428558839019
1.30954704050346326660303475364344
-1.09791632465622646108727167302277
1.35296425424110355884010914451210
-0.23927076316380602172273484029574
-1.77228541071760292702208516857354
-0.76036259162954900059361307285144
-0.99269380802550666320627215100103
2.26569461547079464835974249581341
-0.54037374495363466042618938445230
-1.75229428136027598483792644401547
-1.50045489382444552362017020641360
-0.83163710392042566876824594146456
-2.24772753866357577479107021645177
1.00222939403070987474109188042348
-0.57162538528559836414899564260850
-2.19954282105990905904491228284314
-1.75828971783087628644182132120477
0.45865619186215095259839813479630
0.56218979289581394453989560133778
-1.36958283006269443404789853957482
-1.04405462394534498393738886079518
-0.94543461627570946070875379518839
-0.20676045580990048966540939545666
1.23724865499645231281533597211819
W:
-0.76825261753413576215621105802711
-1.61418847272800158876293608045671
-2.23962075868229781860918592428789
0.25569177814069804499652605045412
1.51348157289706497508063876011875
-1.27040581047970890793408216268290
