mlp_weights
I:4
J:5
K:1
V:
0.77756294533843095528879985067761
-1.25646462319587781664154135796707
1.52609601185013921131883307680255
0.43359487136227414794120704755187
-1.60428948329858833687922015087679
-1.75839681189648766590494233241770
-1.96617370242497435661732652079081
-0.13492865860987193760145430587727
-0.24809889134579313219042262517178
-0.28154899382266257434892509081692
-0.83859186133527063855552796667325
0.41736765285798138602757489934447
0.80258871583572499730507843196392
-0.00939260314565651399654200304212
-0.13933037754982896538891168347618
-0.91355547843147577591338404090493
-1.25963731128421407845507928868756
0.25431209776610042005984269053442
-1.10270049040177076093982577731367
0.67535726649671234955718546189019
0.92719847303936164806259512261022
-0.85598445780338461297276353434427
-1.87263088449599424123448443424422
-1.46391612537223547718667759909295
-0.37949138796598569367546360808774
W:
-0.81658041258683844443311272698338
-0.06155263529238912123542348808769
-0.81069177333016229081152914659469
-0.98802975943554960380765805894043
-0.09365268838948150043055562719019
-1.34999568220134058549319888697937
