mlp_weights
I:4
J:5
K:1
V:
-0.58232709174231556126244413462700
-0.86132623543026254342436232036562
0.69614859585390653773373514923151
-0.36870863808676224149252220740891
-1.86134964862292440201940735278185
-0.04272011115707952111364420488826
-0.16724925080274843924854621945997
-0.91203881258849106572483833588194
1.45748798917861566160070196929155
1.52128815028453878710479330038652
-0.65689570141416331328088062946335
-1.53446237314987876665384192165220
-1.05493187382323383438631481112679
-2.17674950928427435314915783237666
-0.34585318807979215094405844865832
0.51618520735349771033639854067587
-0.28954518816529145608384965271398
1.17152221427320046842623924021609
-0.64699789298991439157049399000243
-0.30787803193012508451431585854152
-0.35231665692078306673096221857122
0.90424349004212756231169123566360
0.18503432853051271500532948266482
-0.37216969519736242677510063003865
-0.81896430329254754632017920812359
W:
1.50417013930438581148507637408329
-0.82018624447927535037194957112661
-0.26969390015869676435755764032365
0.47111894848638186106271064090834
0.41797459832931505019359974539839
-1.57294408088706871851059077016544
