mlp_weights
I:4
J:5
K:1
V:
1.39363599661399684137563781405333
-0.95205242271784296104186751108500
-0.40144890076306116721838179728366
0.01211841684664154497608201666026
-1.71774253722827596746469680510927
-1.47513801960346313535410445183516
-0.85281635079011697264661506778793
1.97341859250802409420089134073351
-0.35239774202586260365421821916243
2.47278046695009434685630367312115
0.21321276922792775643245022365591
-0.33819460852840965703336451042560
-1.42990924170016309169284340896411
0.14096725675491023066498996740847
2.18010178111526986555190887884237
-1.17609345313292745771605041227303
-0.70842581568857043716747057260363
0.09027679726582210628649249883892
-0.49697960861613493799282537111139
-0.60728973291176391313683780026622
-1.85553457843925784231942088808864
-0.41839285713272594824374550626089
-1.22145712052868526953375294397119
-1.27698495807554834868824400473386
-0.77782470116271085203152324538678
W:
0.42199046228157832683081096547539
-0.96268297878900854769312900316436
-1.08670519544173238557505101198331
-1.42190373235475320257137354929000
-0.69065814310325979175075872262823
1.20860950776351216973125701770186
