mlp_weights
I:4
J:5
K:1
V:
-1.15663338244805768972867099364521
-0.98904686455049839466369121510070
-0.96470169803165572997016852241359
-0.49789833201809730045539481579908
0.56099179562455647740648601029534
-0.45922239091415134604190484424180
-1.68815011938659464973966350953560
0.88463774894014157723631797125563
1.28425851039019112143080292298691
1.44524399045944029751353809842840
-0.60918114001416268088462402374716
2.04831230194574809289065342454705
0.66329037312106131629718674957985
-0.22933736456695597016874899054528
0.56067266531235582238679171496187
-0.26859044474365378896152378729312
-0.18590952867427629202623506898817
0.52040594959513519768279365962371
-0.47861020076376825649333568435395
0.28151201880627713114435550778580
-0.75230832310788608996432458297932
-0.60647316219039537621426916302880
-1.38243457277192471899240899801953
-0.13844976213215087756935872675967
-1.73308167569975957178485259646550
W:
-0.78041237515111250289123745460529
-0.03427795596546019674111249742054
-0.52172966438700807412232052229228
-0.66566424814094549144982693178463
-1.13856553802642679329437669366598
-0.92245222792346748263980771298520
