mlp_weights
I:4
J:5
K:1
V:
-0.33900782264269702093173464163556
-0.59921022855204553181351911916863
1.58624622570756268480351991456700
1.71249854234764797844547956628958
-0.36212716591617288841575827973429
-1.06053008659337399954836200777208
2.70017601089350334220284821640234
-1.67630905878440494838343965966487
-0.30981968739051851668975245956972
0.15527183886561982117946456583013
-0.71129747302124046726135020435322
-0.25976424750995130708020042220596
0.00962219146149397019929239149860
1.95805961196585132100267401256133
-0.61356131566462901449909850271069
-0.14601582618196937146670677520888
0.45988036779094371153675524510618
-0.57291902887505763430908700684085
0.25132699097531563392493580977316
-1.08799901652538966168037859461037
-1.92797832749025443987989092420321
-1.01835790738484899264904015581124
1.30814956367207280152342718793079
-0.85461550586677148544367810245603
0.62563720958916613223976810331806
W:
-0.06066577282036014762134357169998
1.31694327925245491250905160995899
-1.10846428026862664495411081588827
-0.34385678496895527578303131122084
-0.31911625885779915101636561303167
-1.25709865717560553832754521863535
