mlp_weights
I:4
J:5
K:1
V:
0.01617586357135475383373091062822
0.12225320861701564900680949676826
-1.21776999265248253578874937375076
-0.40088721882032485321900594499311
2.25830281819553446709392119373661
-0.25920888032044298032730011982494
0.47568694938269628913474207365653
1.70333796699026929211129299801541
1.08065345177846761082207649451448
-0.44268855417366143045754256490909
-1.06211222590557552436507648963016
-1.81894523509024064189532055024756
-0.21348101459231288989926156318688
1.20816563300932533486786724097328
0.82731216698420695365712163038552
-1.63690364588299996917442058474990
-0.11563360422471249955300720557716
-1.64848881014334014416533591429470
-0.58619965562629983146791801118525
-0.40688794653516519028713105399220
1.83904855167637948376579970499733
-2.14643535102435834005518699996173
-2.53670703937818231565870519261807
-1.79968402276454386701232124323724
-0.85722484320387182243905499490211
W:
0.27831761168661967031923154536344
-0.37575479260894739663712016408681
-1.66763964611888226841074356343597
-2.15648558311992921687760826898739
2.11390350427299411606441026378889
-1.45956554483099854024885644321330
