mlp_weights
I:4
J:5
K:1
V:
-2.34991899802324244461715352372266
-0.15945194432341591728174989839317
0.58871720516803316414211622031871
0.05241691725032740500900274582818
-1.67144720573335070490372800122714
-1.11400391102781948227118391514523
-0.34804197075315412845952778297942
-1.69854327756482437195018064812757
-0.61178480909476751214981504745083
-0.69169583927483324625740124247386
-0.27037439664604639988354506385804
0.71169390419266220781935317063471
-0.77435024585680911624052669139928
-0.85949681278350997803983091216651
-0.69767389721052019968539070760016
0.37355916057418325770811406982830
0.92446873478616020669562658440555
-2.06054453860775854678877294645645
-0.59406060081545719597784227516968
-0.75118112689612703825048356520711
0.31762078544297672744178839820961
-0.29403447620953865326853815531649
0.84925605911717294560503432876430
0.73240531283460297284904072512290
-2.48171224451487226758672477444634
W:
-0.73739224435846084659829102747608
-0.94311884189248940124628006742569
-0.62014033777357091548054768281872
0.32429190147977371427856496666209
-2.03472948258904740015395873342641
-1.34966512521176928984800724720117
