mlp_weights
I:4
J:5
K:1
V:
0.27707605756401254559762037388282
-0.36605942473796815317399477862637
-1.30537045731497225453665578243090
1.21731622205730238839294088393217
-0.41446044772839885084181332786102
-1.93510055724859220127598291583126
-1.00110732715529970882073484972352
0.11562639638251834273141582798416
2.00077305357941037655677973816637
-0.80128427790936518348985373449977
-0.81179054325928190483097068863572
0.27427938463501416732626125849492
-1.73462922038787170642137880349765
-2.13419637407565510045515111414716
-0.17253287287883573020152994104137
-0.21472120995076879323981700053992
1.35864292707980904850728620658629
0.36997891307953789663542920607142
0.80646820727386570037964474977343
-0.11615097606795982132510403062042
-2.32184735005928022388843601220287
-0.70378613373252285612124978797510
-0.79442004566387647290781615083688
-1.95645817804546329199411047738977
1.45825690961944021140084259968717
W:
0.51234623575059490274696827327716
-0.95849025750660055145146998256678
-1.09237464278565732378467600938166
-1.01734689468583128224565825803438
-0.14684167804665165801836224090948
-0.37230630841740336434142477628484
