mlp_weights
I:4
J:5
K:1
V:
-1.41417650539562744782529080111999
-1.13940578299455652633298541331897
0.04045064931144752573555223307267
2.05536873417360821392207981261890
-0.80357824698084678871623509621713
-0.84051717627515898367818181213806
1.84221447789748560275313593592728
-0.37027324975160080811065199668519
0.29736369952893487722533905071032
0.99765907026203981544654197932687
-1.00028972484485167981915765267331
0.05277223309026159159262903131093
-0.10058308800167901908562129165148
-1.28935890975586109341577412124025
0.25657295165759508304148539536982
-1.28038090198218501569726868183352
1.51616422808075057560017739888281
-0.98908063874138207882680262628128
-0.09163242978455019005501469564479
-0.39393158951770523845681282182341
0.99759915882083682880931974068517
-0.68605076440526480130444042515592
-1.14116969471337670327670821279753
0.37159738526325208907152841675270
-0.52826479516449642570563582921750
W:
-1.73433039792844523319104155234527
-0.51464811657124476251823352868087
-3.39605146491312659406958118779585
-0.21522734541375665440199327349546
-0.61439458429352733492834204298561
-0.50995757487715187572518971137470
