mlp_weights
I:4
J:5
K:1
V:
-0.37992555382749548797960414958652
-0.07738713016318693460604549727577
-0.80153721693489232702489744042396
-0.61373521598008207167396221848321
-0.37224759201902130056893724940892
-1.74287430622197536678186224889942
-0.36388946804082838992755455365113
-0.06362937435611083769604334747783
-0.31182733198648426853338833097951
0.63372007316170542168265455984510
2.84325921149681715149881711113267
0.49727085733041248571950632140215
0.32249889448460422602948938219924
0.40789089880711976165983401187987
-0.93564096031348042981079515811871
-1.70757419921064634849017238593660
-0.41028652841325330413724259415176
-0.26397686669419201388464557567204
1.35366014102828846610293567209737
1.01684161438734199656153123214608
1.66795171950208076516730670846300
0.29968437142942583317761773287202
-1.91291525946959373172262530715670
-0.32029324211641035935471677476016
0.90249851716350015795597983014886
W:
-0.64859408337647062037234491072013
-1.16918374303190075735869868367445
-0.20813468141959756696479644233477
1.05679261366519061660085299081402
-0.78113426765957671982221199868945
-1.33271549896506980026344990619691
