mlp_weights
I:4
J:5
K:1
V:
-0.00003092834282714118643298206734
-1.29733596972248288459184095700039
-1.78662734247745280669050771393813
1.09066993601556472270885933539830
-0.46891083796765686830809727325686
0.72337387260683216894108227279503
-0.82899875199142702975052543479251
-0.01397554371442147336246364375256
-1.25830789160584233243866947304923
0.48404378799277336664630411178223
-1.56369026010353739941649564570980
-0.47483944570747382840636419132352
-2.21782935184030849384839712001849
-0.66674113995423511802584926044801
-0.01011438568018104000589829638557
1.10170189908294569036684151797090
0.21152865619650892958780730168655
-0.50121022962079131435331191823934
0.64337443308298836175396218095557
0.66410487985859234516539117976208
-0.70929489125546529848520549421664
-0.39785027134529293846298969583586
-2.10894820471742105993939730979037
1.28769582586918085453930871153716
-1.09556574759231684090821090649115
W:
0.55955720386934792998090415494516
-0.83601727205719678082118662132416
-1.91724807473029001947395499882987
0.63387737778386110676365206018090
-1.21354076118624965019421324541327
-0.03899652935570550871258177494383
