mlp_weights
I:4
J:5
K:1
V:
-2.77642551422436767438739479985088
-1.73506402815940452555310002935585
-0.21274636204857078070062925689854
-2.01509232134018079207748996850569
-0.13710075812279845508534492637409
1.38818762679418683525511823972920
2.06125547523596486243491199275013
-1.49877135627125057659725371195236
-0.37738944002748692208015768301266
-1.70509148647571984191984029166633
-0.68272714213569962726779749573325
-0.61123817648672063018722155902651
-0.49934665876048422994415432185633
0.47488840675779864231031979215913
-0.04442179892167501253918970860468
1.56891394846063225720911304961191
0.55602887495015984598012437345460
-0.31813916402084513324055592420336
1.67041569703259362711378344101831
-0.96329392223641430170744115457637
-2.02498284293107344566919891803991
0.74991260568993756141509265944478
-0.08320276961217282218896684753418
-1.04258724158880577981278747756733
-0.32756608302279821565150541573530
W:
0.63536441248380182145183425745927
0.08343127421257107156904453404422
-0.63188047928783952489339981184457
1.94358843899800981525061160937184
-1.03280397286227487718690554174827
0.22092210197313447150868626067677
