mlp_weights
I:4
J:5
K:1
V:
-0.72157452160078749958671551212319
-0.45197065210657094702639824390644
0.53117223695078263911995009038947
-0.36874174280921973023694704352238
-1.10771579346398496568326663691550
-2.35424623050373504895560472505167
-1.14608418090786345899800835468341
-2.29543995146277390873024160100613
0.78403178799128014908603745425353
-2.14164295962951145568808897223789
-0.16531649524000463502559910011769
-0.21466396771809262422614494880690
-0.23620012807204182614384535554564
-0.79527962346446778862940618637367
0.28871084122946000238840724705369
-0.01157600927148488834106387912470
-0.84583811138134368245999894497800
-1.67627681976281928122318731766427
-0.29204214870253397684507490339456
0.48634464972217283929012410226278
1.01588148572934255930988456384512
1.27144542101245416887422834406607
0.55630207659324570901304696235457
2.14202018643280567289366445038468
-0.93834646371272378839734074063017
W:
0.16357340479492238349834565269703
-2.88201667185741383647723523608875
-0.32597138006777065522001635144989
-0.25136475236260091836726360270404
-0.69496838743050559639158336722176
-1.20606522263108950632215510267997
