mlp_weights
I:4
J:5
K:1
V:
-0.26605722984282043075410228993860
-2.23791599209894531696818376076408
-1.11454218920374037438136838318314
-1.85725690604655424564839449885767
-0.02789208432251194524909010397096
-2.26004493696911623601408791728318
0.03649990612936948597422315287986
0.55095302319583339123454379659961
-2.14327666462740085151494895399082
0.59607721568851645965736452126293
-1.65761367587319430327852387563325
-0.02518668430100601263177395594539
-0.46162562292045017375841098328237
-1.67921315902646073325854558788706
0.13600909464087151956590560075711
0.29602295594101146747334496467374
-0.07216465405970085011944092912017
-0.03456671868171634631750066546374
0.18940385429830711161436340717046
-1.12303651743584276267995392117882
-0.35804309965072400601115987228695
1.75411732698866251745073441270506
-0.25548321079238467401495427111513
-1.79033766518257131394875614205375
-0.30159802769026378133077059828793
W:
-0.69926770465226284478887919249246
-0.68194260486941216115042152523529
-2.14089224682982282033094634243753
0.05050906260099796013518513859708
-0.24235060515176248818747239965887
-0.12865696683404367894887343481969
