mlp_weights
I:4
J:5
K:1
V:
-0.45353996155803655287996889455826
0.10174230787264326725249929950223
-1.81865071886023299541079722985160
0.34954088258615467754708561187726
0.91563307829195583753545406580088
-1.97790374985799433105171374336351
-0.74524993395686378594433563193888
-0.11566270987595692054661355996359
1.02602501431490988892392124398611
0.02936382989663784137679414243394
-0.18977489372680411694460644866922
-0.04137811671012743552910961852831
-0.94408562671604556726379087194800
-1.28604574352453804308993312588427
-1.06266912203324404018189852649812
0.05947523470542932094717869517808
-0.51483078738640564164796842305805
-0.74550089694856702671188486419851
0.11578473977779671355570201285445
2.00593886713373059649256902048364
-0.59533750746415159404989481117809
-1.97640559189877107471033923502546
0.57514197064702532458113637403585
-1.64469685226057937832422339852201
0.38013516308626105200119127403013
W:
-0.88090189248910477637366511771688
-1.43020995093618918936329009738984
-0.35389721615831204459823311481159
0.62006348951478673647841333149699
-0.55125143730600600910918274166761
-1.18605899448595497602809700765647
