mlp_weights
I:4
J:5
K:1
V:
-0.52119531557798126630842716622283
-0.28017237837319941551328383866348
0.65999741949295587239987526118057
-2.05686377547182086544808043981902
-0.24004218604231353229039314101101
-1.87718792834521464030217430263292
0.78717110596431538738215749617666
-0.15615482770825178659990228879906
-0.16650630256395981820816132312757
-0.92966536845821967638414662360447
-0.83521268757661593085117601731326
0.97249592326321954161016947182361
1.44340266411014828129566467396216
-0.35761271024263607820614652155200
-0.17030464414453067023558219261758
0.73971528039460687775630276519223
0.04494498444930430935961851446336
0.73699776397074590050806364160962
-0.67129741469825510158386805414921
-0.49228820796022576544714866031427
-1.93108825164932218498847760201897
-0.29410590164912353561277313929168
0.44282740536076053983194356078457
-0.55550863540714057187130947568221
1.92658720717222919915911916177720
W:
-0.80422789651513681974392966367304
0.21703972998227233359713750360243
-0.81113892380166041640165985882049
1.77370603282347638618432483781362
-1.18083352631465010595945841487264
-0.21520367882429553008094558208541
