mlp_weights
I:4
J:5
K:1
V:
-0.69739715162267190695644103470840
-0.63955128295491203704870031288010
-1.25467781399903444139454222749919
-1.39072662896576737523446354316548
-0.24663184813433267073001786684472
0.11631266664316877723628351759544
-0.46301287625264575531502941885265
2.08808933379770467198000005737413
-3.50727698833410883594297047238797
1.36091440832003574001873857923783
-2.02751425538905039047676837071776
0.50623998008000581361187641959987
-0.58627026624535549803596268247929
-0.89066310950760962938943521294277
1.78250124804353626828401502280030
-2.11312133156306547476788182393648
-2.26120782690235744283313579217065
0.58455060314622298012210421802592
0.72670487244766990286848340474535
-0.20497171492461965791598288433306
-0.75383507290895390706708667494240
1.56050173277120896031533447967377
0.51025689796029960465517660850310
-1.26223580687408443168351368512958
-0.04705131297902387377263266898808
W:
-1.88885113702914564370871630671900
0.97992735802601127481636922311736
-1.57620516173845581775481150543783
0.33050958021060150571202029823326
-0.37418730528201887830519467570412
-0.21864914605115678969404768849927
