mlp_weights
I:4
J:5
K:1
V:
1.56100726840342041157327912515029
0.50676590276743416207949621821172
-0.12740758315004074852083704172401
-0.48873682100817905649137173895724
-2.64492230066688627232451835880056
-0.63660972065016163679018745824578
-0.26840592186076089875612638024904
-0.13029745788685279106466907705908
-1.23107988807374035822306268528337
0.62093811992704206481619166879682
-0.93489813899296403398864185874118
-0.01698559439676000648589138108946
-1.06005127595253356709292802406708
0.63517852792930018512862488933024
1.00051520186275122448193997115595
-0.86546392035634678308042566641234
0.41304004379424325010816687608894
0.36165650189134068703822322277119
0.16931222476215446182123969265376
-1.42441464201551371004939028352965
-1.11206359493576067976050580909941
-2.22794049169396890519578846578952
-0.57594285002662604089351816583076
0.32411830275756203789683240756858
0.80272534031707631907437416884932
W:
1.06792366119750070652116846758872
-1.69631526530938314678564893256407
-0.24494917868393584203801083276630
-0.10248040323096781201162031038621
-1.72868007535460033174956606671913
-0.12079516220856406638617386306578
