mlp_weights
I:4
J:5
K:1
V:
-0.12053821806406622707541487216076
0.01010925111913241192240775490063
-0.21576296491436350311055036854668
-2.29040654565901391492843686137348
-0.60331239903718980599478527437896
-0.78948344917607715665042178443400
0.22507256590966628895245094099664
-0.16145060061231558679040176684794
-1.55711525441426568150404818879906
-2.02702017403308865084454737370834
-0.41328682074841160964950859124656
3.09731508864789351065383016248234
0.70614340174417133955131475886446
0.55642147156474841551698773400858
-1.14218929339360242281031787570100
-0.06865582390027412384991833960157
-0.04436030167088593489932435431911
-1.15062609329160681070902683131862
-1.57030669420631441290936436416814
-1.15784195951379298428207675897283
-1.68241518220253505333516841346864
-0.32076662793900578840577964001568
0.74869167174509010376226569860592
1.69067740054251247627803422801662
-0.59021352052546383060160906097735
W:
1.44446254302622500986785780696664
-0.02065645047072811602006936482212
0.60170402982036208516802844314952
2.71808237905381933074977496289648
-3.53751717408643484574781723495107
1.96024585963371533736676610715222
