mlp_weights
I:4
J:5
K:1
V:
-0.33372023202731360136397142923670
-0.29347332070290849115323794649157
-0.21836540259366793437223464025010
-1.10580683544579660981810320663499
0.41470363470851256959548436498153
-1.27955531403921485278374348126817
-0.55866930815356474759880711644655
-0.64129065232404869334459363017231
-0.45082542581264323233725122008764
0.29466177364819690076558345026569
0.74277433675869730667074009033968
0.77260371227719826237034794758074
1.67242131636900293045755461207591
-0.07552762119735992318858563976391
0.71873380049602109131967608846026
-1.65476018731982943421598974964581
1.57535716840608630562314829148818
0.11297163092353332269901500239939
0.99012508214386152349817393769627
-0.46526435431824347821461174135038
-0.63993104014819179869988374775858
-2.69165231094705115211240809003357
-1.49539594386792984437306586187333
-0.12073232476564746407099448788358
0.46480469524427858729609397414606
W:
-0.25058274465223751015230391203659
-1.98448132158062851004842741531320
-0.22361109605446938264350364988786
-1.83820607994752172054120364919072
-1.11797845519384342338753413059749
-0.30320781979979544162873139612202
