mlp_weights
I:4
J:5
K:1
V:
-1.40628826863899414334468929155264
0.76025772370309507852681463191402
-0.53776305546041336391738241218263
-1.01117762943262512465025793062523
-0.95416868439786717281947403535014
0.40532923482349203503360968170455
0.65938395282512352046921932924306
-1.57532638473698227699060225859284
1.10677849648196713339132202236215
-1.08714244167990115030875131196808
-1.51754768253337313232975702703698
-0.41132073673498925625580113774049
0.92193842267518022470795813205768
0.67082170932138751595630310475826
0.27818753923654249149421957554296
-1.90383013665026123995005491451593
-1.94727190596964372382160490815295
-2.39361599617385634175548148050439
-0.08144158138310070293997000590025
-1.21288099025452988932727294013603
0.12743770710670063173175492465816
-1.19109915926686293907721392315580
1.48726741105703874623600313498173
-0.88364717467518338889220785858925
0.34235648747891606058502134146693
W:
-0.53295199503855905653892932605231
-0.63647219942371635603706181427697
-0.89854515291545955513186072494136
-1.30523174126636254399613790155854
1.75283822213839957093739485571859
-0.67872608742775419887749421832268
