mlp_weights
I:4
J:5
K:1
V:
-2.59717811712202006901861750520766
-1.25950300548528759669864030001918
0.50302754433711038828391792776529
-3.47968456536915482502081431448460
-0.51596391742822267367785116221057
-0.27909716254513711186646673922951
0.16831819454903648725085929527268
0.57538401640012970528204050424392
-2.17014964922964148641426618269179
-0.76308637333285556092477008860442
-2.38995545281588261943284123844933
-1.65776349041755266533471058210125
-0.88625893092312768573037828900851
-1.73804466460295570229277473117691
1.13234506781159649513313070201548
1.37376969210534083387642567686271
0.57704728509157521276762281559058
-1.13817198296342159125060788937844
-0.73339920873090536090899149712641
1.10768401246502778967339963855920
-1.29904631626347732975546023226343
-0.40772172791768435118342495115940
-0.01023229911971607064558043020952
0.62435171462513450180153995461296
0.00886878777570732773627426581697
W:
-1.03397743655654639205465628037928
-0.90301506116419538727768667740747
-1.05846452530372303613148687873036
1.55370759154902637888540084531996
-1.63194516416678903070192063751165
1.01665545023539616309449229447637
