mlp_weights
I:4
J:5
K:1
V:
0.40069937663317911624716316509875
-0.88112891961921868677620750531787
-0.40537767095352250645845515464316
-0.79136559677430717840707075083628
0.87781507952805681860297681851080
-0.25776651355968249745842513220850
-2.57147431190024500224922121560667
-0.21950854389033161440103469885798
0.11647653160699580898729266209557
-0.06078826401073934848628965710304
-0.22972466287222825798153280629776
-1.13184109913895758481316988763865
0.36330989426621573823439348416287
-0.69077418878449492467552772723138
0.21125872408307067029653580902959
-0.14557063308227863318577988138713
-0.52946741154374876714427955448627
2.41699448600651622953705555119086
-0.06902133312653940810932340355066
0.20002232960742588607772063369339
-0.69451317965355918726544359742547
-0.09993579823030546149809083544824
0.81645171409068661994012927607400
-0.01147353856911781377903025713749
-0.66726518397268030913238590073888
W:
-0.10071973800814587596264004787372
-1.08549036503266682629487149824854
0.92183803777120398859068473029765
-0.52945837482950031116502032091375
-0.04810192575908968370956841908992
0.97985755749428593563976619407185
