mlp_weights
I:4
J:5
K:1
V:
2.18818168905894605558160037617199
-0.74945941239454405558007010768051
-1.39573877214470076779662122135051
0.85692153592241837589682518228074
1.03639859555270130719861754187150
-3.14279465657278977985811252437998
0.55418101185236567918224181994447
-0.15864126906020220575399548579298
-0.65948531347651206946380852969014
-0.90567902003108291530963924742537
0.42677545806426014918244504769973
0.83690095589411006571367579454090
-0.28640848143229519218166956306959
0.09744040798597014552129280673398
-0.92619032235333742519856059516314
-0.22601644624747926903829409184254
-0.10433774689887494180329241544314
-0.80029976976418903955590167242917
-1.81597474911534373376298390212469
-0.65917147593481661971281937439926
-2.10424688622545996707913218415342
-1.17030470204061520789196038094815
-1.20985328727497343237473614863120
-2.14046877799350987459092721110210
0.30043835215836972585279340819397
W:
0.65284961751568570953452308458509
-0.67568798385305983700277465686668
0.03256987693235599556906834095571
-1.16376270195702513632340924232267
-1.13988814869453758404915788560174
-0.42082021863325314026127443867153
