mlp_weights
I:4
J:5
K:1
V:
-0.66454733615462580065269548867946
-0.06193472858400092539987724649109
0.19810137810820258041921704261767
-0.19357805372573447244555211455008
-0.01377242164163505755425376264611
0.19989238414741183902378907077946
2.19739654815941154453184935846366
0.66175439517489675900208112580003
0.38539225147949085492626863924670
2.11750874416842593817023043811787
-2.04341060271581298479759425390512
-0.57813089421990970784293040196644
-0.59139330588023708568101710625342
1.93245504922684152582235128647881
0.63337076935699321289519048150396
-0.01098877548454207930817005944846
-0.07468385836162494406664791313233
-1.06223252861702377458641421981156
-1.48575971447419474813500528398436
-1.39713549039552131780794752557995
-2.51822741668053851071817916817963
-0.49033951162390132516577523347223
-0.30837633467262892672522411885438
-0.27995517847714401771241909955279
-1.70850250411775417269666377251269
W:
-1.05020734146289052013401033036644
0.65600301717831210890352622300270
-1.31913784996172234187383764947299
-0.56911467848420893567151779279811
-0.06150562451091359100763256151367
-0.93962719621640911071835944312625
