mlp_weights
I:4
J:5
K:1
V:
-1.17495164523737072315157092816662
0.50758342549860546721873788555968
0.32864022762627420615189066666062
-2.72846041361818514303649862995371
-2.20733429688925752998329699039459
-0.43405176239861947840026346057130
-1.16599600940138325988471024174942
0.18941842373257267162500738777453
0.49404329857935885828013056197960
-1.12580356345852994337519703549333
-0.43610355157884655996625156149094
-1.97568904743624007558366884040879
-0.34140454367125283585693296117825
2.44051287993536103471114984131418
0.50348392311000855769975714792963
1.69569411133815650671863295428921
-0.60673318100464601609900228140759
1.79642852237244055046971880074125
-0.88022545044840838635025193070760
-0.24963345980732387641154446100700
0.04175005416394006463320920374827
-2.68116918616620125703775556758046
-0.53460009169125066730288153848960
-0.07193019690274402022645006127277
-0.33985918433943951288966900392552
W:
-1.25153894267789311811611696612090
-1.43413063531538087502781309012789
-0.58427075921204585373658346725279
0.66446501263146917626301046766457
-0.40823415157840081679552213245188
0.19425493985597888646488229369425
