mlp_weights
I:4
J:5
K:1
V:
-0.84687866005673040348256108700298
-0.78200672298673734594842699152650
1.78420659364424927240122542571044
-1.65817868402931067883798732509604
1.20583836899851459811827680823626
-1.18574497815732926575549299741397
-1.07707527017417703518731286749244
-0.41343651258238589552007624661201
-2.57294885841606335574738295690622
-1.13160631384383947306560003198683
0.53519651694963887855749362643110
0.64533717174478644196256027498748
0.04537498478567053572518830151239
0.54064525436567301142076757969335
-2.05083497487551369431457715108991
-0.70840010454166391085095710877795
-0.19111253260636001938266304023273
-0.01630585418099867595076446491476
-2.39665311947836068284800603578333
0.56441310721884885293064826328191
-0.81757962644994386369745598130976
-1.52128196860656705879932815150823
0.47556098608936336891162000028999
0.89122177320586093429710672353394
-1.93872974102499884274664054828463
W:
-1.05304365596632565349466403858969
-0.98044576551272966113970142032485
-0.26413230420906702589078918208543
-1.93627865140954180667165474005742
-0.13760903860436526913169075214682
0.60843913433754515107665383766289
