mlp_weights
I:4
J:5
K:1
V:
0.94459151860075674100869491667254
-0.97718464790089709648412963360897
-1.25876094263776816539746050693793
-0.04534372205539577427302333489934
0.94531607437027331819479059049627
1.76370089924979334128352093102876
-0.49730941860116817387904575298307
0.98312002912861662373700255557196
0.08186736455345042240416830736649
-0.07470038817973810585382210547323
-0.45550778517792234190153521922184
1.88588161536603737822304083238123
-0.91198046591644199576620621883194
-1.13427510892031757627762544871075
-0.28458122363079252359341353439959
1.24613406705004381436197036236990
-0.30940969236724208402122826555569
0.45636234640895667613591513145366
-0.20846473563043399490624096870306
-0.56743111728806550075887571438216
-1.11563620851622125051960665587103
-1.27870414739360160893966167350300
-1.23592377017328391985984126222320
-0.34295536025345935149388765239564
1.45072602876435885477235387952533
W:
0.81511576257938456180340835999232
1.22963539181692604884688080346677
-1.16014587831757776115182423382066
-0.26737020726193516662050342347356
-1.60404693390433017441409901948646
-1.14131458593559198533284870791249
