mlp_weights
I:4
J:5
K:1
V:
2.08346369285231514112410877714865
-0.17405557771516466658567878766917
2.07798525120950294819976988947019
0.34863691037175559284122527969885
-0.55220544120640924212750633159885
-1.27701554328947941563399126607692
0.00814355261487764714445347635774
1.98576430796652991794815079629188
-0.22256753023877473562919249161496
-0.44943285479265471238363716111053
-0.95398269322160633709728472240386
-0.86514700285508250310329003696097
-0.64400474312457745007520770741394
1.20304073833951052918678215064574
-1.19491872130491705306098992878105
-0.19464925630364254827142644899141
0.55334395061374352930982922771364
-1.35326493355744559288211803504964
-2.44919605853009958451593774952926
-0.66842735006217290916197271144483
1.03189254539710795199880521977320
-0.54630989878387592462161137518706
-0.95045741847444975558545365856844
-1.79306885492420997607609933766071
-0.61844737573422259302446946094278
W:
1.86177435209953534567262067866977
-0.87121743177672117397492002055515
-1.12433485337750926902344872360118
0.84722151596777939275284552422818
-0.22519754533018321307480391624267
-0.41124086645429192010681163083063
