mlp_weights
I:4
J:5
K:1
V:
1.64753390139596134211785738443723
-0.07964010496470250166645143963251
-0.50030999473872406202445972667192
-0.61181704139150594468077315468690
-0.32158980736043074610819303416065
-0.80020568299125227618162625731202
-0.75597452424914945989797843139968
-0.53090724615116269280434835309279
-0.01214709236967917438398956164747
0.67754594101918674819984289570129
-2.22672942645658977767197939101607
1.85994760090224686699400535871973
-0.58737006123064094964547621202655
-0.24184363663851979331376185200497
-0.56376234807167924234505562708364
-2.27333135950741693775967178225983
-0.26308944744584672470466557570035
-1.29209950633748160697678031283431
-0.74148655753398351464511506492272
-0.28907663956038853747543271310860
1.03109557079381763955439055280294
0.07871938599440123085493326016149
0.84284476793849250064738498622319
-0.40207475289914368365984387310164
0.37475179429655752771921584098891
W:
1.11593214563459031118952680117218
-2.05542112415424504945349326590076
-0.28856613640510320184517922825762
-1.82361226990397162772694628074532
0.56220193227380699241280126443598
0.29856711543796765617742039466975
