mlp_weights
I:4
J:5
K:1
V:
1.23888035248437655688746872328920
-0.63866027302568406653904276026879
-1.30537144490914847061446835141396
0.81395085946485390415716665302170
-0.63625296545285525695589967654087
-0.76599889613600269377968743356178
0.44109541299833221472681543673389
-0.22031389803779885538936866851145
0.40725038994011630855140992935048
-0.56100086862423714784142703138059
-1.93112686411727563218221348506631
-0.80685711993626019200576138246106
-1.03049157173167782453049312607618
0.76048300366217691514947318864870
-0.21126321556423968694993220651668
-0.56717122982402090602960242904373
-0.06860291057513166756987033068071
0.49941431483719267436782729419065
-0.99139236126170304785887310572434
0.15267789092534100880982350645354
0.87205004507488825815642030647723
0.25114584581923088402177768330148
0.11475313349123994477452015416929
-0.25963771297327509213204166371725
-0.39555647683060884967076731300040
W:
-1.66561631927920372753249012021115
1.24808647384887883013959708478069
-0.12674998142943455503584004873119
-0.82550657071095445704855819712975
-0.37117560940825222726147103458061
-1.22462191411444809574504688498564
