mlp_weights
I:4
J:5
K:1
V:
-1.60983818485694984978806587605504
-0.14508680558212228017822553738370
-0.46909294911412452444565701625834
2.16419925792460521307702947524376
0.29871017912148029038732488515961
-1.93690409823654863252784252836136
0.37539060121907741329749796932447
-0.42428889886564341571428826682677
-1.35452964189956559515337630728027
-1.40977643363388160935301129939035
-0.94606576733601477346979891080991
-0.52429316896236310974188654654427
-2.19184420868124663073217561759520
1.11709549509317818127840382658178
-1.98529399700634034964252805366414
-0.01977528621828242294533595213579
-0.41025148970397767866913341094914
-0.84978062797569442476941503628041
-1.75023138003654210592685558367521
-1.57997091550431445483582137967460
-1.13641454019967746980057654582197
-0.96736438559953163984772572803195
-0.75500365168228222856328102352563
0.88629318031108272890605803695507
0.05791871546998933473204829169845
W:
-1.09337257602039050752296134305652
-0.55380733592461173220300452157971
1.05929196471352504715923714684322
0.74981006061870658641055342741311
-1.63981358659846843117691150837345
0.07115803089775550593909514418556
