mlp_weights
I:4
J:5
K:1
V:
0.19591164835073887617866716936987
1.04345604845675188343534500745591
-1.88664908761605087939017266762676
-2.97398599965148768831113557098433
2.73693874889230714941845690191258
0.86902762973722447181756933787256
-0.06575112379456493627571944671217
0.50496436581578052482655039057136
-1.31060709478813341988256979675498
-0.64062690352656037617862239130773
-0.22497006883777892483067262219265
-0.60439694383651332287854529567994
-0.67203385966296758091687024716521
0.55400318596488673517086454012315
0.16783156673189403296220234551583
0.32468088589690169420975962566445
0.76667430316332330075823620063602
-1.69621972508926055489553164079553
-0.65290293366533835861531542832381
-0.13039623700842611908612411752983
-0.51930227734328782140948987944284
-0.59583465935784818423570641243714
-0.35108335171978066746589774993481
-0.11075088502097078790864514985515
-0.53214677000987276045407270430587
W:
0.17535822121001690132580108638649
0.97184224692450371652086005269666
-1.47505999650683250479232810903341
-1.81065711593425016090463941509370
-3.11097581726718175332280225120485
-1.21800571531346468745482525264379
