mlp_weights
I:4
J:5
K:1
V:
-0.14531181920122654416260843390774
-1.10572708792770524333093362656655
2.02719028149533730953635313198902
-0.85465090884263417159161235758802
0.50623153604114368153688019447145
-0.67320860144555194626292404791457
-1.10656698745036563558130637829890
-0.90720577540129998528328769680229
-0.82798222060213544359896786772879
0.55892328632476440120058214233723
-1.92178259065971412944406893075211
-2.06283618930421175363676411507186
0.21793677937222161178354440380645
0.64708863357837387297877285163850
1.03433801518038159805712439265335
-0.04389539688416132373616207473788
-0.94611746931346718536559592394042
-2.99444155866861505543852217670064
-0.91458393525848979965786611501244
-0.42917284316948511868616833453416
-1.05964357702342160116870672936784
0.04589574432170408224695989929387
-0.04715661309751420504632335450879
-0.60454012505252674447575600424898
0.64380708525647245554779374288046
W:
1.52572321675110034178146634076256
-0.27648580736394079426787584452541
-0.59486001745549998975803873690893
-0.86921229681477796269462032796582
-2.25297012346523040093870804412290
0.50787191426982924991051504548523
