mlp_weights
I:4
J:5
K:1
V:
0.72048769010549895686068566647009
1.52681107081795852664640733564738
1.23437559660073059575324805337004
0.11921580946135629242021991558431
-0.49523299073555487881392878080078
-2.18063167688740167093897071026731
-0.78002615691445542633886134353816
-1.32570825698190697394807102682535
0.41833767686157191656448617322894
-0.91821020635367811557614459161414
-0.41307959537683386352924230777717
-0.60272809784925629461582730073133
1.37248899104830623940642908564769
1.39445186777062679617245066765463
0.27661727991933893200382499344414
1.82902642021120453996729793288978
-1.17446349676765948721879340155283
-1.03166447934315064216548307740595
0.36056841675709894179391312718508
-1.32743682653842176577541067672428
-0.63187846514300916034301280888030
-0.00240050899721476473924752781386
-0.79920317642363736254651485069189
-0.68217414667396436556145999929868
-0.15004012712225756054351677448722
W:
-0.71156607628632595474726940665278
-1.48577909742959413108565058792010
-0.26882506778994108564972975727869
-0.27437125498960174274643009084684
-1.45580823574627649108492732921150
-0.99642848198887523647471198273706
