mlp_weights
I:4
J:5
K:1
V:
0.84710261302195333232845086968155
-3.01855495455247169189760825247504
0.32433570481965340315255730274657
-0.80409542693578983652002989401808
-0.96877655937631790283859345436213
-0.25843135559423924263455774053000
-1.44254327264615422876659067696892
-0.96611111315238429320118029863806
-0.84521928508190868889471403235802
1.89726222874550831676287998561747
-0.81655403180690955267095887393225
-1.26106182756044749027068974100985
-2.10634840048632154818619710567873
2.24328651603683271176237212785054
0.52515339486433454396774322958663
1.86357662810586921509070634783711
-1.90816130016041185513131495099515
0.60666915704324020364168745800271
-0.64888210470928198159157318514190
-0.84204901077887750471262506835046
0.22642696891029556738317296549212
1.87087427931307748174560856568860
-0.24730541977698344835445709577471
-0.27207240946884025944996210455429
-0.59903462830041687148252549377503
W:
-0.78886100749107290752704102487769
-1.93079963539328591792809675098397
-1.57329812783273181864274192776065
-0.23218398024679637314804381276190
-0.90042868489180927227266693080310
-0.07021156545441067931001555280091
