mlp_weights
I:4
J:5
K:1
V:
-0.39080662821605460788276786843198
-1.41104684036796035329075493791606
0.07501547854077236787695426301070
-1.10178717120028912823670452780789
-1.08888420407111441434722109988797
0.40640083253533948459690350318851
-0.48690410129051192589244578812213
0.13124634778040042415447885559843
-0.52433356338112657724082055210602
-1.62338896902493479146301069704350
-1.06356972032923935422843442211160
-0.23453274893476461215868766885251
-0.46363381797735664369142227769771
-0.41030183730623454030350671928318
0.84753502246876832870725593238603
-1.19837234737061804068503079179209
-1.13017690208052146161321616091300
2.83956735306271568219926848541945
0.05399380432867227630477913180584
-0.43677191302119089399980111920740
0.26956017702390810963919420828461
-3.17845857422855315732590497646015
0.00432869602605133810269144589711
1.36159152346227396712663448852254
0.22367681967271207943426247766183
W:
-1.17176881351110639961632386985002
-1.06067220121347638439601723803207
0.40442259599505214762160676400526
-1.46789228509740521388948764069937
-0.18571695256402226403835697965405
-1.13986067745057728650692752125906
