mlp_weights
I:4
J:5
K:1
V:
0.59847985289621030702278403623495
1.54262348026449802596005156374304
0.82540113574804618856717297603609
-0.75563394636038383467280254990328
-0.90032917543138890614784486388089
-2.49690847013681560540021564520430
-0.55277547410279082029660457919817
-0.29068032745041733067026257231191
-1.01594977282458787115615450602490
-1.51028847950120992393863161851186
-1.05259205730204108419911790406331
-0.59604190713467919415791129722493
-1.57984373941976263822084547427949
-0.22371043229532253104885342054331
-1.34372270580470165590725173387909
-1.36084547178240056197751073341351
0.73182903983526137459136862162268
0.50383213222690947930004767840728
-0.25334714110545908383187452272978
-2.65554117172582815342707363015506
-1.37186826417489982077313470654190
-0.36302273128291140391610269944067
-1.39593547995563982411226788826752
1.00464471662624732495316948188702
-0.89872129902076558494172786595300
W:
0.18836498588255795594292862915609
-2.53445242084917410352318256627768
-1.19348011820258470550015772460029
-0.31910643151523992999685219729145
-1.08770673389651895135443737672176
1.23958489152190520776741777808638
