mlp_weights
I:4
J:5
K:1
V:
-0.07967318052620334101199262022419
-1.95878686063421159069264376739739
-0.36692538649618477997194077033782
-1.26646394370130610518287994636921
-0.73609020777229128285057413449977
0.77108037205251966916819128528005
-0.60905476453264428826628318347502
0.79416900040101912061629718664335
-0.41590158679256439278049128915882
-1.08555678918444264979825675254688
-0.29631222494670095279900579043897
1.20088314933847573051650670095114
-1.30909587236422986222805775469169
0.95785260937262384217660837748554
0.24540635953833137006263598323130
-1.47981232751844804518270848348038
-0.24089270905703141778531062300317
0.05235457881245087624622058797286
0.15923839650246568444558192823024
-1.42551019669403622458503377856687
-0.28499652953037096780875003787514
-1.75289595834911260396893339930102
1.60083735950897354527455718198325
-1.37325877387670991502943707018858
0.06815029722374912890536791110208
W:
1.25652216411683603780602425104007
-0.69721475395604426417150989436777
-0.82830731871866170035190179987694
-1.29110037108408759465305593039375
-1.73418643646249326373265375877963
-0.66596870584071066190290366648696
