mlp_weights
I:4
J:5
K:1
V:
-0.14819446969716332240807332709664
-0.51461438694417926953406094980892
1.58139455685964325226677829050459
0.33693290011761090063657775317552
-0.28122992344026082056629434191564
-1.28358336085429347583897197182523
1.01951551775429649637771944981068
2.42730726197136981170388025930151
1.69956910328201393767244553600904
-0.63894985319715358329517584934365
1.59500332332255712053381557780085
-0.50944560393198612402443359314930
1.09345488915798494389264305937104
0.19207489769919733335612477276300
-0.99481032421419990363631313812220
1.03609829564579758454101465758868
-0.25038642925202048150623568290030
-0.33117599863399727055934818054084
-0.24947006494653650721105009324674
-0.32240424477326873331506362774235
-1.47210704234125255851495239767246
-0.75153173982466203728591835897532
-0.22977863993604358272548893182829
-0.91539357104446739121783593873261
-0.48867833975979907412678926448280
W:
-1.74609678174516802506843760056654
-1.10382720798219624569469488051254
2.51674712129102573499039863236248
-0.77115892871939828445704279147321
-0.57849096097839769470283499686047
0.73145288745703018751243007500307
