mlp_weights
I:4
J:5
K:1
V:
-0.13882489256295099666616010836151
0.35298201858741867775748346502951
-1.57768630045648805548808013554662
0.21394983246500834384029587909026
-2.27853858027133915342687942029443
-1.03327847075743206595177525741747
-0.33367033422332104120044959927327
-0.32517908280785279284685884704231
-0.40699308606527989651269194837369
-0.76474396662229149335132660780801
0.51574682269863469930015753561747
-0.88722863705059773486993890401209
0.82145491231879197435716832842445
2.40609740175661013239505336969160
-0.04008474401848640539247625724784
0.28099152927158044246169765756349
-0.36217509702939498783536009796080
-0.15323592340532127265007034111477
-0.98046151797006320105509757922846
-0.59517539538417829625416288763518
-0.86925600640584166356461537361611
0.60582888004370671897191868993104
-0.81010743369243398692702839980484
-0.58321066944736354997758098761551
2.11473343872612362659424434241373
W:
1.27057699110836108680189227015944
-3.38348773488915943730148683243897
-0.03905044310176631477959929839017
-0.27826612468274791734046402780223
-1.14570593531720055224809584615286
-0.17046354894519896716609252962371
