mlp_weights
I:4
J:5
K:1
V:
1.23204237853411413539106433745474
0.48887171330364159738124385512492
-1.21313232983961793998162193020107
0.67738040856691794644461879215669
-1.53466859785188214360118763579521
-0.20323417669690077569377706367959
-1.49755891701471433030690150189912
-0.17559078969303543171776027520536
-2.30966672444959364440819626906887
-0.83134135880131787565971990261460
0.81225130129569489412233451730572
-0.15510180167206505386090498177509
-0.18598070407638134238226257366478
1.61946778211085162801907699758885
-0.53044958932660235539913173852256
-1.64727612911878695811651596159209
-2.67196673145688246009399335889611
-2.98169982205512518191881099482998
-0.71775124559621994446700909975334
-2.36873528224530049968166167673189
-0.76681217658027012173960201835143
0.46539421663320995614654407290800
-0.15288411119537642646193376094743
-2.35814887807745421355321013834327
0.64626512983945472168301193960360
W:
-0.61909394523602578885856928536668
1.10425164932529651373727119789692
0.35408509523140019314979554110323
-1.29241616915303514367963089171099
-1.58510363041753188362292803503806
2.24541497955399549368848965968937
