mlp_weights
I:4
J:5
K:1
V:
-0.50801153910514207368009920173790
0.16003244146748904497279397673992
-0.21124356996860366164625588680792
0.19064668724049338432990907676867
-0.48595224420023797051726432982832
-0.76666364755378557660492333525326
-0.40088933749360611269452192573226
0.69300141859620556505916511014220
2.24519071104979861530637208488770
-1.53219472979062576456499300547875
0.94754938002685162867777535211644
-0.72844897150834986288003847221262
-0.21795367210785698830477485898882
-0.07450278210871606743292971941628
-0.78139908141993275059178358787904
-1.44145849834686923252036194753600
0.38709360243605328566474099716288
-0.40843072351005332842888151390071
1.70404906237344389019483514857711
-0.54199827345209694584582393872552
-1.24879229479992570617241653962992
-0.16243970353670450501581967728271
1.53949272057226016485742547956761
-0.24667233103327443344277014602994
1.44306621957422653856895067292498
W:
-1.10327473631063277537123212823644
-1.06916579132649580685665569035336
0.56528942505421675424059912984376
0.46022738214056513328387154615484
-0.76211281841075806386953672699747
-0.29367597788357013843807408193243
