mlp_weights
I:4
J:5
K:1
V:
-0.79747426801645482363767314382130
-0.38425987377695730584648003969050
-0.35240269796182466244260922394460
-0.02187143872165710212218669994400
0.55363481384122104067557756934548
-2.66131394054449144093155155132990
-1.83446222624983645843599333602469
0.33638559686959962347074792887724
0.77656790605663472693009907743544
-1.02335742111210925564535045850789
0.03985392648877278398700241268671
0.70478841128075120359142147208331
-1.28534387376583292272869130101753
-2.28589628745252770869456071523018
-0.66701592382713170703567584496341
-0.25527764764123350715863125515170
-2.23037265058409461815358554304112
-0.12179694853541279953024201176959
-0.02157220057710290683772313968802
0.39409202620542616024579274380812
-0.41996232212213352452678805093456
-1.31124768352201215293462155386806
-0.75133853745707346316606844993657
0.34108171889389243824908248825523
2.31238960768743329055041613173671
W:
-0.72333693754884809123950617504306
-2.25028220057495831341043412976433
-1.11562485121028576173785040737130
-0.54767268269145263914765564550180
-0.60679226053762813641867523983819
-0.64660044960867013585925633378793
