mlp_weights
I:4
J:5
K:1
V:
-0.40122230135453362809272448430420
0.50238121030462312699427229745197
0.38204902420775854743340005370555
1.43690639907248662865413280087523
-0.59893514691609295308438731808565
-0.25243474035369656283123163120763
-0.07594382016880928121249638707013
0.02345034381945435009164668826998
-0.49952668273843980895065897129825
0.88574908581692146647412755555706
-0.44247138657098350478236170602031
-0.40699761799478334500790310812590
-0.47019889173474027632693150735577
-0.85860843630608696397388257537386
-0.64924410882688377011362490520696
-1.24187366796163733972946374706225
-0.30145826170234246710322167928098
0.62764098388157807395515419557341
1.33199159341905115638837742153555
0.25034200091231401108515797204745
-1.54441003902019979854287612397457
0.09839863045290909993045858072946
-0.63659819980786891413515604654094
-1.90357852529357529647313640452921
0.68484741756962463909985672216862
W:
-0.05648356007772420417367698064481
-0.65019889305815004032496062791324
-0.30343639112894665865738375032379
-0.79818784030695011377787295714370
-2.11515374850867488021322060376406
-0.09498360124525064007716679270743
