mlp_weights
I:4
J:5
K:1
V:
0.55790095131738093314766047114972
-0.20216255809638700169372782511346
-1.11542100735272109446327704063151
-0.39243082605823093045316340976569
-0.83131377072845458187089207058307
-1.22381421153880287633342049957719
0.82958629794995364381549052268383
-0.23271273730820044023381854003674
-0.79144144627850865347795661364216
-0.90334128150211889796139530517394
-0.96552195373424587465649437945103
-0.62879376871962089357026570723974
0.64038414381393438112866078881780
1.27451155355318945794351748190820
0.03582729165415110550441113446141
-0.59104398582418726793008545428165
-0.14623077113905685875394624417822
0.59125286594979531429316921276040
0.93829244963981905947036921133986
-1.00411526502206127631211529660504
-0.81621682427886310673414982375107
-0.51718391368999716561916102364194
0.15680049509231086535265831116703
0.91454278669146671365552947463584
-0.33114012315464486091443063742190
W:
0.56045995789844782475341844474315
0.01047731191956333129944312076987
-0.68203267262518996183473518613027
-2.06019710380263898485964091378264
-0.42939074474832045202887798041047
-0.08806486951472947133368052163860
