mlp_weights
I:4
J:5
K:1
V:
-1.25279165170122497308113906910876
1.66021638293225071159042727231281
-1.09544714012861277296906337141991
-1.08876767376372174389587144105462
-1.29033743553715973817475060059223
-3.35488838955587409529357501014601
-0.42149349144234182773516295128502
0.24783256745994283742895447630872
0.48232868716028082234359430913173
-1.49889456277739285816608116874704
0.59122563010360995594538735531387
-0.80520357290796029658963561814744
-0.45283475525740835010424234496895
-2.82028566698451177430229108722415
1.24746289000466914487219582952093
-0.65162498519116029971343095894554
-0.29014697888889517951582774912822
-0.91403429006825076541531416296493
-1.01726634752491529312123930139933
0.27249342461326159225976084599097
3.11300422781805519178988106432371
-0.83679321710775089737666121436632
-1.86673537266097055997704501351109
-1.39506421624452947582994966069236
0.36194806354818753746371839952189
W:
-0.73573157516945597578228444035631
-1.56005302579804450147094030398875
2.02904037504625822663228973397054
2.12394608564593578847734534065239
2.54629402410790595112644041364547
-1.68524292716844659167918507591821
