mlp_weights
I:4
J:5
K:1
V:
-2.62665984265753538196008776139934
1.41443033443680343808068755606655
2.31268464137436779992640367709100
-0.15960887915738991571501514954434
-1.23552746411433789219813661475200
-0.41269868494974082384629809894250
-0.34855004140228323938899279710313
-0.02016330910935500500547057356471
-0.12069290415606133415327150260055
0.67061246455258904930474272987340
2.47619275401112570733630491304211
-0.72432287860814259516928359516896
-1.56862797131007125628343601420056
-1.52670260451470451990019228105666
-0.69512505338770580465279635973275
0.91944707948263337815575368949794
0.52123030477368970103668743831804
-0.32389637498601864251668303040788
-1.96059621531998606869251489115413
0.96953928543406631135326279036235
-0.10808562242982398815538402914171
0.07598287043471937951544248335267
-1.05965507810685588552246372273657
-0.81264343530536542470343874811078
-0.02173325317323036159899984909316
W:
-0.13355673252665783978798685893707
-1.71652450258855537867930252104998
-0.14655245606714714656781950452569
1.32199792565459528503879482741468
-0.99692207833698520680343335698126
-0.59534463692585737337736873087124
