mlp_weights
I:4
J:5
K:1
V:
-1.20737579998253541369024333107518
0.43554843312683000355889362253947
-0.21806921536903198233225964486337
0.94439068148048355144652532544569
0.88809953304453492783920864894753
-0.43266108309334716519600760875619
-1.89494056376693853493975439050701
-0.37135881001801185341548716678517
-1.06396444470514150992812574259005
-1.14339259737911413949973393755499
-1.30200080100275550343269514996791
-0.62180270041650809176303482672665
-0.07084324528027008405217657127650
-0.15806772750685579853602291677817
-1.73782137983750151200013078778284
-0.69003816344781632174942842539167
0.96208932650720968560165147209773
-1.03844071838987539457832554035122
-1.15979648063481888264902863738826
0.14469043124536956623771288832359
-0.65379091792195342947024983004667
0.33047583314830009104667851715931
1.02137593368746082411746556317667
0.68789091487335984886897222168045
-0.98401347706539055160135376354447
W:
-0.44908449742415085248481432245171
-0.61556935413091240505423229478765
-1.19992938604224774756801252806326
0.90383677870370249252118810545653
-0.14646466407866159942230410706543
1.38649481151070874673791877285112
