mlp_weights
I:4
J:5
K:1
V:
-0.20171402390050646724617422478332
-0.19897347176713087169019900102285
0.46994656689498137680516265390906
0.69599850589291278879500168841332
0.64403231805987837255145223025465
-1.85409420779709122051315262069693
0.14340090286061263347150429581234
-1.63830880157232949834167357039405
-0.87315657874869134769113543370622
1.10713085288194768018854574620491
-0.70288353863150210276700136091677
-1.07686457255488798878673151193652
0.61621050335576121881331346230581
-1.44618286658120731580368101276690
0.39364806822320469459342007212399
-0.82970198261574601428236519495840
-1.01269775013860607870697094767820
0.31639025229177664133572989157983
0.98452369820477025896821032802109
-1.04838766008828776499228752072668
-0.74115597600837790359662449191092
-0.08056594632145290535429893452601
-0.71829909631830024530074751965003
-3.65235768779264224903613467176910
-0.94873747922502515983467219484737
W:
-0.20403144752721680266205339648877
-1.14210727087096231002760760020465
0.66491699019944860982178624908556
-1.50030300299058017010622734233038
0.42725163087894113544962237938307
-0.05543353918313027872688536490386
