mlp_weights
I:4
J:5
K:1
V:
1.20677508339825068084394388279179
-0.22173371848852294063725310024893
0.83599516000147056082880681060487
-1.19576239233691583585539319756208
1.14579975450461635233523338683881
0.33323126811483516629408541120938
-0.14664432436422722427771248021600
1.46606131547584550567364658490987
1.84272743215890422163738548988476
-0.18143683402133300996972309349076
1.21048499151798449879890995362075
-0.82087770398217274614438565549790
-1.08284392390290440388866954890545
-0.17269946776701905477580112346914
-0.74312099748892967987501378956949
0.32906250995311814300237074348843
-0.03190519399087075880228070445810
-0.96308758580760822631816608918598
-0.25699827490235332971835191528953
-0.58513994038838668121371711094980
0.14186152807512886209195812625694
-1.02478855953374137222056106111268
0.88131083805870491509892872272758
-1.55357571343666234220393107534619
1.17880054625925190237012429861352
W:
-0.50225310671168910126027640217217
-0.20851642645208393056499573958718
-0.87632501406707374869142768147867
-0.15629880987812644344003842888924
-0.20504311590511448137874594976893
-0.29316028346146305594288605789188
