mlp_weights
I:4
J:5
K:1
V:
-1.77669645116596219835969350242522
0.02672354760504154491673745042135
0.86785518714273990337204622846912
-0.29214608376328932148879857777501
-0.06875550760687927642766936742191
-0.49556414409222943051602783270937
-0.87333792450673941587524495844264
-0.62424740446684501282703649849282
0.09358761893903720652243549693594
-1.46345390837994515642606074834475
-0.47446370511357166543930929947237
0.35882589867268177563630615622969
0.50898903602461220696540067365277
1.31243293040678898897510862298077
0.24097524069036252436504241813964
0.84878013113963035607412166427821
-0.31972461507827354409982945071533
-0.73882027733591204565755106159486
-0.09033688771071293754921782692691
-3.33637947553516278631491331907455
-2.27337364089657256727150524966419
-0.40409750152568252312690333383216
-1.77572387590229752163395460229367
1.75372863292712999339073576265946
-1.11223571510741892076623571483651
W:
-1.35224054248039871062303518556291
-0.11844308313355679518341645461987
-1.37817599881317676135950023308396
2.16474448498568339260827997350134
-1.81737570891766053726712470961502
0.28656858219290720635186175968556
